{"Authenticity": {"Weight": {"": -9.121476466375887, "(very": -1.2048043747151878, "likes": 3.216587461753792, "earlier,": -1.8961656142178245, "entrance.": 0.08918690189440792, "done": 0.9970054032940565, "fell": 1.5012043486752165, "talbott": -23.466896686413644, "originally": -8.921098886791224, "small.": 6.345941019464878, "neither": 5.306881062430831, "huge!": -0.9513703534926111, "cramped.": 3.604127335459931, "noises": -0.8754638369897794, "freak": -2.1728403098756592, "beautiful,": -1.0259748714276413, "al": 5.7761864461949095, "tea,": -0.47483887767723454, "value": 12.551982292819478, "earplugs": 0.0, "basically": -2.1684135147451338, "not.\n": 0.0, "package\"": 0.0, "it's": 32.92415858342556, "ill.": -1.3913156695527635, "25th": 1.7964325239242236, "luckily,": 4.881908729900397, "hip": 2.651259683614348, "screen": -9.701451728403098, "doubts": -0.6683158648525487, "way": -14.220428357528807, "return.": 10.23051884642927, "facilities": 0.5668250764924159, "occasion": -1.23143024542673, "heat": 0.9647158388125773, "learn": 1.1721242106633682, "simple": -0.7011913286895384, "additionally,": -1.3154091530499317, "coat": 3.3465920187487797, "online.": -3.2669748063277133, "stay...": 0.48382266779506544, "connection,": 0.6905800403619555, "daughter": 14.115291973178829, "still": 17.951826052991343, "option": 5.107349781915239, "tv,": 5.595924744482781, "prompt": -1.6329666037367359, "shelves": 0.0, "clean": -3.8953193151487535, "james.": -2.2426925330382135, "able": 9.853394961265543, "mini": 3.751122973764729, "hotel": -35.02311047457848, "alot": -3.0035153961330643, "theming": 0.689278041794154, "story": 2.0383438578217565, "admitted": 3.2243343532322113, "(perhaps": 3.213137165549118, "memorable.": -1.8675867456545796, "keeps": -0.45368140095045895, "ample": 5.929561877481935, "and,": 5.587917453290801, "generic": 5.160276023696374, "usual": -4.419178438903717, "grain": -2.151357333506933, "6th": 3.4604517935030272, "deal,": 1.3823318794349326, "blood": 3.8627693509537138, "china": 0.9572944469761083, "lukewarm": 4.335525030922466, "us.": 13.623006314693054, "carried": 0.0, "rate,": 3.377905084304407, "sorry.": -1.8842523273224399, "file": 11.061519432328623, "fast": -2.9367228696048433, "raved": 2.9675151357333505, "ice.": 1.8682377449384806, "range": 2.155849228565849, "accomodations": 0.9039125056962437, "bathroom": 44.848186966994334, "bowl.": 3.9084044007551593, "fabulous,": 0.9566434476922075, "dealt": -0.8329535837510579, "affinia.": -3.343271922400885, "elevator": 22.15754182670399, "slippers": 1.3788164833018683, "management": 3.3130004556994987, "say.": 2.2770001952997854, "desk,": -0.9899746110279278, "fantastic,": -4.059501334548532, "beauty": -2.0258446715708613, "pillow": -12.112297376472887, "following": 12.766877156435129, "girlfriends": -0.5248356226808151, "respond": 5.755679968752034, "wacker": 2.326411040947855, "maker,": -6.2129418657639475, "decent": -21.497688952542152, "coast": 1.8745524379923182, "wireless": -0.11132087754703468, "environment": -4.4892910617798325, "images": -0.2159364624698913, "entrance": -5.343597422042835, "match": 2.338129028058069, "terrible,": -1.2929496777553544, "yet!": -1.9526723520604128, "hotwire.": 0.0, "baffled": -1.1294837575678667, "providing": 3.995117505370744, "june,": 6.779181042900853, "remember,": 1.176030206366773, "too.\n": -8.9337282728989, "entirely": -3.617472820779897, "yeah,": -2.963804439815116, "forgotten": 5.597552242692533, "excited": -2.9724627302909967, "outstanding": 0.8582123559664084, "unfriendly": -2.44639020897077, "navy": 20.941019464878586, "signal": -1.6630427706529523, "gum.": -2.020897077013215, "maintenance.": 0.0, "gentleman": 1.9336631729705098, "superb": -11.313586355055008, "spelled": 0.0, "fails": 8.204934574571968, "great.": 15.30544886400625, "entire": -3.152203632576004, "error": 2.951760953062952, "everywhere": 2.5976173426209233, "sq": 0.0, "(one": 1.1526593320747347, "efficient": 2.7952607252132022, "arrive.": -1.9633487403163856, "assume": -4.112362476401276, "gluten": -3.584402057157737, "wrong,": 0.9050192044788751, "places.": 2.766942256363518, "dates,": 0.0, "share": -4.341774624047914, "!!!": 0.9322960744743181, "2010.": -1.9838552177592605, "gorgeous.": -7.490007160992123, "hopes": -7.310331358635505, "pets": -8.499837250179025, "menu": -2.277455894798516, "mile.": 13.738428487728664, "club": 1.4622094915695594, "important": 9.318664149469436, "held": -4.175639606796432, "thin": 5.81016860881453, "rudeness": -3.4778985743115682, "waited": -2.7574376668185665, "conrad.": 0.9662131371655491, "asked": 15.28123169064514, "priceline": 6.566043877351735, "reviews.": 3.537920708287221, "kitty": -1.6491113859774755, "package.": -9.3963283640388, "preferred": 5.996745003580496, "hangers,": 4.510643838291778, "concierges": 3.2359872404140355, "unhappy": -0.4551135993750407, "overlooked": 4.331488835362281, "program,": 0.8676518455829698, "umbrella": 0.0, "privacy": -2.30583946357659, "escorted": -2.0215480762971163, "passing": 4.333572033070764, "upgraded": 27.821561096282792, "matched": -7.063212030466767, "workers": -4.391250569624374, "concrete": -2.1475164377319187, "(only": 0.0, "nights,": -3.971811731007096, "anyway.": -0.042314953453551185, "foam": -2.360458303495866, "deliver": 9.897207213072065, "four": 4.974155328429139, "dinner.": -3.4167046416248943, "nearly": 8.217759260464813, "recession.": -1.9916021092376799, "uncomfortable.": 4.70288392682768, "beach": -0.027732569494173555, "'business": 4.828591888548923, "award": -0.6990430310526659, "rude!": -1.928129679057353, "hit": -10.87709133519953, "boutiques": 2.548662196471584, "fluffy": -3.0458954495150055, "industry": 6.497688952542152, "inn": 19.689082742008985, "final": 0.18325629841807173, "glance": -5.575418267039906, "unavailable.": 1.756981967319836, "rate": 17.095892194518587, "rating": 7.616301022068876, "(built": 3.5737256689017642, "rolls": 0.44762710761018165, "opinion": -1.3333767332855935, "years.": -5.616301022068876, "3pm": 1.428032029164768, "recommend": -22.41299394570666, "college": -6.4766616756721564, "included.": 1.2342946422758936, "summary,": 0.9680359351604713, "meetings": 0.14855803658615976, "sitting": 1.66935746370679, "awesome,": 11.532387214374065, "temperature": -0.023566174077208624, "bottom": 2.5913677494954754, "indicated": 5.658615975522427, "giving": 8.703469826183191, "indeed": 0.007421391836468949, "call.": 6.6099863290150385, "ahead": 0.49580105461883994, "couch/futon": 0.0, "copy": 3.964390339170627, "filled": 2.5417616040622355, "phenomenal.": -1.8333441833213984, "world.": -6.963088340602825, "hurry.": 1.7375170887312024, "end": 13.44573920968687, "acknowledged": -1.633096803593516, "they'd": -4.095306295163075, "help": -5.852288262482912, "happy,": 3.078705813423605, "yes,": -3.9686218345159823, "lock": 0.7728663498470152, "beyond": 5.027797669422563, "booked,": 5.684590846950068, "features": -6.005468393984766, "properties": 11.960940042965952, "plus.": -4.972918429789727, "unsatisfactory,": -1.6087494303756267, "end.": -0.9376993685306946, "plasma": -2.552112492676258, "30": 4.621248616626522, "nw": 1.7293795976824426, "hand.": -6.302324067443526, "service!!!!": 3.800859319054749, "bathtub": 2.6482650869084043, "process": 2.4405963153440533, "beat": 2.3583100058589936, "at": -2.1772020050777945, "inadequate": 7.297311372957489, "reasons": -2.094134496452054, "cta": 4.793763426860231, "staring": -0.8994206106373283, "b": 3.467938285267886, "ability": -4.04120825467092, "son.": -3.9505891543519303, "immediately.": 7.113794674825858, "pampered": -0.9937504068745524, "bed,": 14.180457001497299, "non-smoking": -6.782110539678406, "later": -0.964390339170627, "slept": 2.334808931710175, "disappointment": -0.642145693639737, "try.": -1.0788360132803854, "district,": 3.9495475554976887, "limited.": -2.0475880476531474, "hotel!\n": -8.575157867326347, "notice": 2.1523338324327845, "sight.": 0.4913742594883146, "items.": -0.9891283119588569, "matches": 0.0, "(he": -1.880997330902936, "nice": 10.574571967970835, "cover": 4.953453551201093, "(for": -0.2957489746761278, "sell": 3.623201614478224, "dc": 1.6633031703665127, "scratched": -2.061910031898965, "tap": 1.5622680815051104, "etc.,": -1.4303756265868108, "handed": 2.18996159104225, "slow,": 0.3171017511880737, "moment.": 0.4829112687976044, "mirror": 6.857756656467678, "east.": 4.806588112753076, "initial": -0.8923898183711998, "where": 15.970379532582514, "8": 7.156109628279409, "whenever": -2.245947529457718, "courteous": 12.171212811665907, "way,": -2.095110995377905, "birthday": 5.4686543844801765, "receptionist": -0.9103573986068616, "company's": 3.9309940759065167, "hours,": 0.845452770001953, "upset": 0.5808866610246729, "salad,": -2.8849033266063406, "moving": 0.5739209686869344, "thumbs": -6.551266193607187, "concern": 4.620792917127791, "deal.": 6.101686088145303, "sum": -1.9119848968166135, "doors": 4.887312023956774, "comforting": 0.0, "square": -2.878458433695723, "rep": 5.369637393398867, "importantly": 0.944599960940043, "girlfriend.": -2.0258446715708613, "didn't": -7.8474057678536555, "surveillance": 0.0, "locating": 0.0629516307532062, "dogs.": -0.9097063993229607, "exhaust": 0.9497428552828592, "mgr": 2.141982943818762, "while.": -0.5980079421912636, "did!!": 3.2667144066141525, "4-star": -0.5167632315604453, "south": -1.3046025649371786, "email,": 5.797213723064905, "across": 4.407395351865113, "deal": 16.671375561486883, "\"4": 1.9002669097063993, "section": -0.7002148297636872, "staff's": 1.3006314693053838, "fees": 4.871492741357985, "general,": -3.3789466831586483, "these": -8.213462665191068, "forever.": 1.4469110083978909, "fine": -2.750602174337608, "curtains": -1.807499511750537, "tile.": 2.647939587266454, "exact": -0.8130330056636937, "period": 0.0, "cleanliness,": -1.8965562137881649, "\"hard": -0.6764533559013085, "michigan": 27.12570796172124, "trade": 3.9094459996094004, "reservations,": 0.15376603085736607, "enjoyable": -9.271011001887898, "slippers.": -2.963609140029946, "night!\n": -2.1277911594297247, "stating": 6.992773907948701, "seasons,": 1.800078119914068, "5th": 2.1952997851702363, "welcome.": -0.16665581667860163, "things.": 1.080072911919797, "apartment": 3.012824685892846, "means,": 1.8160927022980276, "nickel": -0.9240283835687781, "discount": -5.412733545993099, "accompanied": 0.01718638109498083, "price,": -10.800273419699238, "pack": 4.160666623266715, "has.": 0.8992253108521581, "meet": 1.8759846364169, "apart": -8.417811340407525, "afternoon": 4.089382201679578, "fabulous.": 2.1401601458238395, "spots.": -5.334223032354664, "eating": -2.651194583685958, "flight": -9.803333116333572, "wife's": -2.7961721242106634, "told": 39.68094525096022, "anyplace": 3.43805741813684, "one's": -0.955341449124406, "safe,": 0.9566434476922075, "patron": 3.7415532842913874, "furnished": -9.335264631208906, "entrance,": -2.9023501074148816, "pipes": 0.0, "ihome": -4.747737777488445, "rock\"": -0.6764533559013085, "features.": -5.741813684004947, "updating": -0.5516567931775276, "cubs": 0.9983725017902481, "shops.": -0.97526202721177, "resturants": 0.0, "choices": 3.326476140876245, "though.": 6.295553674890957, "institute,": 2.185079096412994, "recently": -17.829503287546384, "host": -0.625610311828657, "me": 14.5203437276219, "window.": 4.455373999088601, "pet-friendly": -1.9336631729705098, "means.": 0.0, "welcome": 1.0440726515200833, "give": 3.8227328949938153, "(i.e.": 1.8160927022980276, "terrace": 5.397304862964651, "yeah": -2.9531931514875334, "short.": -2.1870320942646964, "upgrade.": 2.952216652561682, "concierge": 16.41351474513378, "you're": 15.18117310070959, "really": -0.8106894082416511, "(as": 4.330837836078381, "talking": -4.145498339951827, "date": 0.4416379141982944, "considering": -1.7739079487012566, "surprisingly": -0.7683093548597096, "$70": 2.331553935290671, "that).": 1.5789987631013607, "conveniences": -1.8044398151162033, "august": -5.2615715122713365, "larger.": 0.0, "refund": -5.2292819477898576, "travels": 0.9704446325109042, "touch.": 0.0, "delighted": -4.368530694616236, "reasonable": 0.3053837640778595, "wrigley": 0.9376342686023046, "mark": -1.9343792721828006, "recieve": 0.0, "\"experience": -9.4468459084695, "docking": 0.8762450361304603, "thinks": -3.042119653668381, "location,": 17.52079942712063, "nowhere": -4.716164312219257, "expressed": 2.7211119067769025, "mess": 2.479916672091661, "me,": -5.879109432979623, "occasion.": 1.373478289173882, "miles": 1.6765835557580886, "thru": 4.7524249723325305, "hung": -1.712388516372632, "double": -7.635505500943949, "fruit.": 0.0, "delayed": -4.972723130004557, "zest": 0.08918690189440792, "breathtaking": -0.7666167567215676, "wonderfully": -0.10741488184362998, "security": 13.352190612590327, "allegro,": 0.0, "go.\n": 2.643577892064319, "forward": 4.180587201354078, "river.": 12.323090944599961, "amazing,": -1.565262678211054, "honeymoon,": -0.8622485515265933, "lit,": -4.527634919601589, "fish": 11.406158453225702, "march": 2.734522492025259, "works": 3.9309940759065167, "constant": 2.1634659201874875, "airport,": 1.4644879890632119, "\"dream": -9.375170887312024, "wi-fi": -4.774689147841937, "king": -10.64455439099017, "from.": 0.0, "compliments": 1.998307401861858, "yoga": 0.0, "due": 2.8886140225245756, "nominal": 0.0, "advisor": 2.3338975327127143, "dreamy": -1.3333767332855935, "everyday": 2.2035023761473864, "guide": -11.38773517349131, "heaven": -2.5779571642471195, "didnt": 6.501399648460387, "options": -2.6894733415793244, "allowed": 3.101816288002083, "see,": 0.044528351018813916, "floor).": -1.1179610702428227, "package,": -0.20317687650543584, "reply": 5.178308703860425, "now,": -3.076101816288002, "locker": 1.759455764598659, "available.": -10.733285593385848, "made": -29.47991667209166, "building.": -1.635570600872339, "swimming": -4.8671310461558495, "54": 1.257860816353102, "seek": -0.9979819022199076, "brunch,": 0.08918690189440792, "drinks.": 1.9451858602955536, "rare": -4.4340863225050455, "wide": -1.213983464618189, "list.": 2.6934444372111193, "garish.": -1.3771238851637264, "attempts": 3.339821626196211, "comforter": -2.8436950719354206, "bfast": 0.0, "crowd,": -0.6287351083913808, "thankfully,": -1.4118872469240284, "foreign": 0.03274526398020962, "home.": -7.571251871622941, "served": -11.648655686478744, "anything,": -0.9431026625870712, "appears": -2.625024412473146, "pass": 2.4642926892780417, "fitness": -20.695722934704772, "disappointed.": 7.539092506998243, "snobby": -1.7750146474838877, "keys": 1.8559989584011458, "makeup": 1.6377839984376017, "restaurant,": -3.3419699238330836, "-the": 2.8103639085997005, "soldier": 0.0, "overcharge": -0.4342165223618253, "products,": -1.204088275502897, "teenager": 1.8608163531020117, "opportunity": 1.0141266844606471, "can,": 0.990886010025389, "access,": -0.04485385066076427, "returning": -5.993359807304212, "smokers": 0.1885293926176681, "excellent!!": -1.8394635765900658, "detail.": -0.9347698717531411, "1": 4.9306034763361755, "travelled": 2.220623657313977, "harry": -0.6984571316971551, "complete": -0.6324458043096153, "stale.": -4.262092311698457, "served.": 1.933142373543389, "fast.": -3.5127270360002605, "reputation": -3.686804244515331, "good!": 3.604127335459931, "resolve.": 3.339821626196211, "thin.": -1.2194518586029555, "shocked": 1.7946097259293015, "others.": 2.965431938024868, "chill": 1.6709849619165418, "lesson": -0.028188268992904053, "somehow": -1.8252717922010286, "monday,": 0.9983725017902481, "are": 15.995963804439814, "moldy": 1.6911659397174663, "wireless,": 0.0, "reserved.": -6.102532387214374, "encountered.": -0.044463251090423817, "bill.": 5.209426469630883, "wired": 0.2242041533754313, "breath": -0.8981186120695267, "distance": 16.374194388386172, "looked": -23.770718052210142, "expense.": -1.6870646442288915, "grooming": -1.4277065295228175, "sofa.": 2.9425818631599507, "theres": 0.9630232406744352, "kick": 3.5491178959703147, "canceled": -0.9452509602239437, "meeting": 11.524249723325305, "sheets.": -4.39710956317948, "lounge.": -1.7599114640973896, "high-end": -0.9337933728272899, "dirt": -0.21990755810168605, "gentlemen": 0.9572944469761083, "chair,": -2.325825141592344, "parking": 24.832953583751056, "seemed": -57.45003580496061, "floor.": 9.21502506347243, "look": 18.696894733415792, "unique,": -1.1602109237679838, "remotely": 5.920773387149274, "pricy,": -1.4733415793242628, "heavy": 6.8714276414295945, "champagne": 2.0064448929106176, "attended": 4.945901959507845, "blackout": 0.823123494564156, "positives:": 0.41449124405963156, "liking,": 4.952737451988803, "some": 8.742529783217238, "maintained": -0.9707050322244646, "years,": -2.9457717596510644, "fare.": -0.9858733155393529, "bothered": 6.815571902870907, "featuring": -2.332921033786863, "lamp.": -2.325825141592344, "design": -3.547229998047002, "beverage": 0.823123494564156, "anyone": -15.634789401731659, "not!": 2.160276023696374, "responsive.": 1.4594101946487859, "admit": 0.9133519953128052, "suffice": -3.07453941800664, "failed": -2.7123234164442422, "conventioneers,": 3.407590651650283, "queens.": 6.12349456415598, "nightlife": -2.525551721893106, "reserved": 4.528220818957099, "david": 2.05806913612395, "river": 13.599114640973895, "eat.": 0.08918690189440792, "1am.": 0.664409869149144, "better": 3.6552307792461427, "held.": 1.7658355575808866, "conducive": 1.563570080072912, "months": 6.772475750276675, "loves": -0.17446780808541118, "worthy": -1.535446911008398, "other,": -0.053837640778595146, "newspaper": 1.1778530043616953, "hilton,": -2.0092441898313913, "standard": 0.9004622094915695, "amenities.": -9.732960093743896, "wine": -2.224855152659332, "advance": -3.095306295163075, "labor": 0.5747021678276154, "hi": 0.8289824881192631, "7.": 1.3888418722739404, "repeatedly": -3.7956513247835426, "chipped": 3.805741813684005, "customers": -3.576980665321268, "greet": -1.54534210012369, "fortunate": 1.9061259032615063, "down": -7.178438903717206, "efficient.": 7.051949742855283, "taxes": -2.507974741227785, "jewel": 0.0, "terrible.": 0.46924028383568783, "scale": 0.8401796758023566, "tickets": 1.9753922270685502, "nearby.": 5.056897337412929, "half,": -1.133129353557711, "&": 28.348089317101753, "time.": -6.711737517088731, "brief": 6.720330707636221, "reach": 2.3753661870971943, "goop": -6.95892194518586, "4*": 0.0, "toilet": 18.65269188203893, "hands": 1.0895775014647484, "nicest": 2.7713690514940437, "visit,": -0.8336045830349587, "town": 7.103769285853786, "tile": 0.07603671635961207, "movie": 2.1839072977019724, "short,": 4.661610572228371, "today,": 0.19601588438252715, "asleep": -3.8269643903391706, "prepared": 5.227914849293666, "undergoing": -0.5585573855868758, "decided": -6.749169975913027, "view.": -7.711672417160341, "bose": -4.063863029750667, "split": 3.262678211053968, "bored": 0.0, "table": 8.893756916867392, "service!": -2.8459735694290735, "apology,": -6.43799231820845, "supplies": -1.6957229347047718, "even": -11.519627628409609, "hospital.": -1.9451858602955536, "basis": -0.4111060477833475, "furnishings.": 0.9977866024347373, "pure": 0.0, "fixtures,": 2.9375040687455245, "hesitate": 1.9136774949547555, "clinical": 0.0, "docks": -1.5081700410129548, "anybody": -4.448213006965692, "bustling": 2.8769611353427513, "his": 10.718117310070959, "low.": -3.7106959182344896, "days": 20.170236312740055, "dining,": -5.387084174207408, "large,": 6.051428943428162, "closing": 0.0, "starting": -0.9984376017186382, "spare": 5.098756591367749, "20th": 2.2533038213657965, "provides": -2.618319119848968, "accommodate": -1.595534144912441, "plenty": 15.522036325760041, "spite": -1.8940173165809517, "premium": 2.887246924028384, "steak.": -2.450426404530955, "filter": -3.546904498405052, "altogether": 0.0, "too": -13.85098626391511, "relaxing.": 0.6904498405051754, "asian": 0.0, "10:30": -2.7276869995443005, "puts": -0.9853525161122323, "sincerely": -2.6094655295879177, "closet": 17.17459800794219, "milk": 0.0, "reservations.": -6.321333246533428, "san": 4.080658811275308, "alarm": -0.05858993555107089, "entering": -1.7524900722609205, "side,": 2.0798776121346267, "consider": 2.485319966148037, "glance,": -7.472234880541631, "pl": 1.8912831195885684, "stuffy,": -3.3816157802226416, "satisfied.": -2.969337933728273, "relax,": -3.4414426144131243, "venue": 0.18944079161512922, "there's": -12.323481544170303, "palm": -2.7921359286504783, "hole.": 1.8475359677104355, "quieted": -0.612329926437081, "crowds": -2.7151878132934053, "value.": -0.06451402903456806, "overpriced.": -3.7474122778464944, "part": 17.5131176355706, "storing": 1.4798515721632706, "wrong!": -4.456024998372502, "children's": 0.0, "trust": 1.6310136058850335, "amazing": -5.136123950263655, "compared": 10.731462795390925, "lively": 4.22277195495085, "bags,": 0.5668250764924159, "stains": -1.5481413970444633, "--free": 0.0, "blocks": 20.425688431742724, "worker": 0.6155849228565848, "seemingly": -2.625024412473146, "deco": 2.2839658876375237, "hundreds": 0.0, "sofabed,": 0.8317166851116464, "channels,": -2.119132868953844, "reluctant": 0.923116984571317, "discuss": 1.194388386172775, "knowing": 3.4037497558752685, "lives.": -1.8044398151162033, "torn": -0.05038734457392097, "name.": 4.823188594492546, "division": 1.8756591367749496, "combination": -4.463055790638631, "fancy": -3.8021613176225504, "come": -4.7844541371004485, "bathrooms,": -0.9979819022199076, "unavailable,": -0.9984376017186382, "packing": 5.3725668901764205, "tone": 2.342100123689864, "*very*": -4.226026951370353, "celebrities.": 0.9192760887963023, "posters": 2.3279734392292166, "etc": 5.006444892910618, "shampoo": 0.04101295488574941, "portions": -3.29731137295749, "says": -3.6498274851897663, "nasty": 2.818891999218801, "throw": -4.936332270034503, "amazed": 0.027667469565783476, "hear": 21.925069982423018, "surrounding": -4.44632510904238, "shoved": 0.5972267430505827, "remember": 10.644424191133389, "attend": 4.672156760627563, "finding": 2.1932816873901437, "decorating,": 3.555237289238982, "very,": 0.5423475034177463, "less": -0.5890241520734327, "opinion.": 0.9378295683874748, "allow": -12.753922270685504, "lukewarm,": -4.657509276739796, "pets.": -2.4523794023826575, "picture": 3.7316580951760954, "lay": -0.9102271987500814, "fair": 3.0848252066922726, "adds": -0.46448798906321204, "five": 8.065490527960419, "ambience": 0.007421391836468949, "renovated,": 1.2601393138467547, "michigan.": 3.824750992773908, "permeated": 6.414686543844802, "seating": -0.9781915239893236, "allegro": 0.09009830089186899, "named": 0.533103313586355, "adequate": 2.440531215415663, "years": 11.509146539938806, "inappropriate": -0.5030271466701387, "weak": -1.0264956708547621, "spots": -11.377514484734068, "however,": 1.7746240479135473, "jet": -5.46292559078185, "inn.": 5.52926241781134, "elegant": -9.044333051233643, "serenity": -8.439359416704642, "worse,": 0.7030792266128507, "painful": 2.4871427641429595, "coffee.": -1.5342751122973763, "arrogant.": -6.101165288718183, "ruining": 0.9738298287871884, "experience.\n": 0.8604257535316711, "broken,": 1.5726189701191329, "comment": 2.8563895579714864, "clerk,": -3.543779701842328, "arrive": -3.9912115096673393, "sells": 0.0, "pictures,": 1.240414035544561, "someone": -19.995963804439818, "mistake!": -2.9464878588633554, "dropping": -5.255712518716229, "pampering": -1.1410715448213007, "croissant": 1.6911659397174663, "us,": 0.3434672221860555, "ft.": 0.0, "described.": -0.5808866610246729, "video": -1.0219386758674567, "apology": 2.730551396393464, "airport.": 2.561161382722479, "cleaning,": -0.9376993685306946, "indifferent": 0.0, "it!!!": 0.0, "try": 16.321463446390208, "shedd": -2.7838031378165486, "blanket,": 3.676192956187748, "express": -3.195755484668967, "lastly,": -1.7369311893756918, "reserving": -3.692337738428488, "(after": 1.6929236377839985, "cooked": -9.104680684851246, "shampoo,": 3.746826378490984, "edge": -3.629841807174012, "that,": 3.9840505175444307, "amenities": -9.40492155458629, "duration": 2.548662196471584, "cabs": 0.8802812316906451, "elsewhere": 3.605819933598073, "cobb": 3.8325629841807176, "human": 0.0, "ridiculously": 0.9058655035479461, "of.": 0.0, "jacuzzi": -3.187357593906647, "in!": 4.784128637458499, "along": -2.2962046741748585, "escape": -0.935485970965432, "base": 0.9664084369507193, "11th": 0.015038083458108196, "usage": 4.701321528546319, "furnishings": -3.2367684395547167, "areas.": 0.9597031443265412, "peace": -3.4226938350367817, "thing,": -1.1065034828461688, "eat": 7.963674239958336, "least": -5.060998632901504, "theatres.": 0.0, "reception": 10.847796367423996, "offer,": -1.3251741423084433, "nightlife,": -3.2646963088340604, "caters": -0.47913547295097975, "hotels:": 0.9842458173296009, "restaurant": -15.716489811861207, "down.": 2.109823579194063, "aria,": 0.0, "yellow": -6.378490983659918, "intended": -1.8151162033721764, "locations": 5.250960223943753, "hair": -3.7632966603736735, "best.": 7.269709003320097, "conference.": 1.2930147776837446, "sofas": 0.0, "compensate": 3.863615650022785, "hunk": -2.939131566955276, "happy.": -4.063863029750667, "bunch": -2.7913547295097976, "supposedly": -0.8326280841091074, "enjoying": 1.6672091660699173, "clean;": 0.09758479265672808, "(who": 0.19022199075581014, "fun,": -0.9703144326541241, "download": -0.9664735368791094, "down,": -6.031638565197579, "maintenance": 2.9483757567866675, "nearby": -3.648850986263915, "arrived": -23.52320812447106, "attractions": -3.4441117114771176, "emergency.": 3.800859319054749, "our": -17.051428943428164, "chains.": 3.062756330968036, "knowledgable": -1.5997005403294056, "detract": -1.4023175574506868, "flow": 0.9749365275698196, "excursion": 1.7110214178764402, "architectes": -4.812707506021743, "can": 11.163205520473927, "worried": -1.5107740381485582, "e-mail": 2.3863680749951177, "places": 1.8168088015103183, "travelzoo,": 1.1986198815181304, "points": 4.378035284161188, "open": 7.316971551331294, "wood": -2.6277586094655296, "il.": -0.9500032549964195, "single": 3.458628995508105, "freezing": 4.286700084629906, "hallways.": -3.3503027146670137, "proceeded": 0.0, "towards": 2.7256038018358177, "house": -9.85938415467743, "consultant": 3.548727296399974, "imagined": -1.3913156695527635, "july": 3.257535316711152, "promised.": 4.344378621183517, "actual": 8.558492285658486, "guest's": -1.678406353753011, "incident": -0.5806913612395026, "ran": -1.547034698261832, "area": 6.49567085476206, "configured": 0.0, "became": 3.1623592214048566, "w": -0.5536748909576199, "assured": -1.22296725473602, "typical": -3.960419243538832, "worse": -1.8227979949222055, "downside": 7.369051494043356, "wifi,": -5.489942061063733, "3.)": 3.7674630557906386, "hosting": -5.017576980665321, "foot": -16.938350367814596, "outside": 13.408046351149014, "restuarant": 0.980990820910097, "approach": -2.4163791419829437, "inquire": -2.2490723260204413, "conditioning": 1.7084174207408371, "beautiful!": -5.786602434737322, "of!": -1.738819087299004, "'view'": 4.2303886465724885, "reminded": -1.0767528155719028, "club,": 0.0, "change.": 0.0, "house,": -2.0215480762971163, "this.": 1.6522361825401992, "equal": -1.469565783477638, "stocked.": -0.7917453290801381, "ourselves.": 0.0, "satisfied": -8.649176485905866, "mildewy": -6.000911398997461, "expensive": 2.6771694551135994, "discounted": 1.8608163531020117, "waste": -1.1490137360848902, "starters,": -1.7737126489160862, "floor)": 2.6194258186315995, "sights,": -1.8176551005793893, "reservation.": 8.706659722674306, "women": 0.928064579128963, "delighted.": 0.6632380704381224, "older": 18.29672547360198, "stupid": -2.7816548401796757, "james": -9.952867651845583, "cards,": 2.445543909901699, "winning": -0.6990430310526659, "honored": 1.309159559924484, "switched": -2.5976173426209233, "year.": -0.7730616496321854, "guys": 12.068159625024412, "\"a": 0.8987696113534275, "2nd": 4.304342165223618, "interior": -2.853004361695202, "westin": 1.4958010546188398, "blue": -0.09602239437536618, "posted": -1.7996224204153375, "modern": -20.244059631534405, "wasnt": 7.269839203176876, "valued": -5.036130460256493, "in-room": 6.00026039971356, "stayed.": 1.6765835557580886, "welcoming.": -0.8960354143610442, "feather": -6.062951630753206, "compelled": 3.475424777032745, "background": 1.9186901894407917, "music.": 2.1930863876049735, "future": 4.42106633682703, "changed": 4.248551526593321, "street,": 5.878132934053772, "pushed": 3.6021092376798385, "necessary": 3.8507909641299394, "charged.": 1.1742725083002408, "bellhop": -7.215676062756331, "entertainment": -2.7790508430440726, "offer.": -0.21509016340082043, "packed": -6.055269839203177, "such,": 2.178504003645596, "amalfi,": 1.283379988282013, "receptionist,": 0.0, "charge.": -2.898379011783087, "renovation": -0.4342165223618253, "in": 2.9983725017902483, "picked": 8.935485970965432, "restful": -4.188594492546058, "destination.": -0.5369442093613697, "guests": -5.992643708091921, "joke.": -5.212811665907168, "east,": -2.6055595338845126, "account.": 0.13059045635049804, "right": -0.782631339105527, "complaining": 1.04954104550485, "met": -3.226352451012304, "she": 21.11535707310722, "requires": -3.7106959182344896, "primarily": -0.22094915695592734, "summer": 2.2214699563830482, "nightstands": 1.8152464032289564, "available": -20.53447041208255, "approached": -4.087168804114316, "sorely": -12.836664279669293, "necessary.": 0.0, "why": 15.354924809582709, "bustle": 0.0, "deals": 0.8703860425753531, "abassador": -5.430375626586811, "less.\n": -1.213983464618189, "pulling": -0.9248746826378491, "budget": 6.472039580756461, "follow": 15.422954234750343, "thread": 0.7854957359546905, "consideration": 3.480958270945902, "taste": -6.969207733871492, "outlet": -3.584402057157737, "does": 4.929106177983204, "exquisite.": -0.97526202721177, "great,": -1.5851832562984183, "down!\n": 0.0, "am,": 0.0, "neighbor's": -4.957489746761278, "nicer": -0.6935746370678992, "mouth": 3.29744157281427, "appreciate": -1.8434997721502506, "credit,": 1.9828787188334094, "fail": -0.967775535446911, "location.": 17.985808215610962, "bedroom.": 0.7838682377449385, "tremendous": 1.9451207603671636, "$300": -0.11047457847796371, "off,": -18.614478224073956, "individual": -3.7088080203111775, "celebrating": 4.676258056116138, "reason.": 5.833604583034958, "stretch": 0.9044984050517544, "$10": -2.739535186511295, "changing": -1.5325825141592344, "towels,": 2.3812902805806915, "sleeping": -5.536293210077469, "disinterested": -0.988412212746566, "greatly": 1.1400950458954495, "types": 2.1054618839919277, "noise,": 6.387539873706139, "payed": -0.3947659657574376, "return,": -1.5610962827940889, "lamp": -1.5324523143024542, "couldn't": -19.847340667925266, "cooking": 5.3193802486817265, "cons:": 1.721502506347243, "proved": -1.5324523143024542, "lounging": -1.3333767332855935, "bid": 0.0, "perfect": 6.171733611093028, "been.": -1.4647483887767723, "gave": -2.328884838226678, "strange": -0.06770392552568193, "pillow.": -3.0203762775860947, "designed": -3.541175704706725, "party.": 1.7724106503482846, "$500": 2.7871232341644423, "premiere": 0.9593776446845909, "no-smoking": -2.479916672091661, "access.": 4.853720460907493, "housekeeping,": 7.278953193151487, "carry": 2.200768179155003, "physical": 0.19601588438252715, "instead": 4.232927543779702, "ac": -1.4693053837640777, "honestly": 9.390274070698522, "clean.": -7.246403228956448, "crisp": -1.3333767332855935, "mattresses.": -8.044658550875594, "wouldnt": 8.369767593255647, "screwed": 3.5904563504980143, "week,": 1.4067443525812122, "sandwich": 0.0, "comfort,": -3.6059501334548534, "curt": 1.4284226287351085, "would've": -0.10839138076948118, "pet": -21.069201223878654, "caray's": 0.0, "other": 13.120825467091986, "leaving": 0.9660829373087689, "accommodations.\n": -3.2999804700214828, "offered": -29.014256884317426, "same.": 2.6481348870516244, "pillows": -8.937569168673914, "staying": -21.317622550615194, "impossible": 4.674109758479266, "...read": 5.776707245622029, "appetizers.": 0.1538962307141462, "anxious": 1.8787839333376732, "spacious,": 5.8190872990039715, "paid.\n": 0.2780417941540264, "client": 0.3199661480372372, "accomodate": -3.6865438448017707, "showered": 0.0, "recommended!\n": -2.430310526658421, "wants": 0.23605234034242573, "somewhat": -4.163531020115878, "he": 21.211444567410975, "magnificent!": 2.189115291973179, "50": 4.915825792591628, "(there": 0.9054749039776055, "expect.": -2.112102076687716, "room;": 2.8067834125382465, "traveler.": -4.376472885879826, "(on": 2.4036195560184885, "quiet": 23.870125642861794, "mean,": -2.8667404465855086, "rooms,": 0.27049020246077726, "point": -9.367489095761995, "appreciated": -8.148297636872599, "checked": -5.114445674109758, "sunlight": 2.548662196471584, "right!": -10.813163205520475, "overbooked": -1.7522947724757503, "perhaps": 2.4564806978712324, "here.\n": -4.1380118481869665, "warmly": 1.7796367423995834, "$50": 1.1861206952672352, "up-to-date": 0.4409869149143937, "sister": -1.248811926306881, "quite": 9.748584076557517, "aaa": -0.3305123364364299, "robes": -4.365080398411561, "(so": 0.43577892064318724, "please": 4.252392422368335, "waiting.": 0.9800143219842459, "warning": 0.0, "north": 6.972918429789727, "only": 7.110930277976694, "cozy.": 4.9416053642341, "absolutely": -7.540850205064775, "least.": -4.672286960484343, "larger": 5.062626131111256, "stays": 10.33845452770002, "suites,": 5.291973178829503, "discovered": -0.24418983139118566, "supposed": -8.09966799036521, "air,": 0.1828005989193412, "odor.": -5.058720135407851, "cities": -0.22661285072586423, "convinced": -3.31378165484018, "made,": -3.035674760757763, "operating": 0.5843369572293471, "dated": 2.8722088405702753, "stained,": -0.1911984896816613, "beat,": 0.0, "tip)": 5.833604583034958, "overlook": 4.919276088796302, "completely": 4.209296269774104, "person.": 1.0407525551721892, "new": -16.988412212746567, "episode": 5.04185925395482, "stared": -0.9391315669552763, "sightseeing": -4.526528220818957, "yet": 8.04153375431287, "man,": -5.7587396653863685, "hyatt,": 0.7080268211704968, "overpriced": 3.715122713365015, "fallen": 0.17837380378881584, "suitcases": 0.0, "spectacular!": 0.0, "regardless": 1.9533233513443136, "flooding": 0.0, "rate.": 15.242367033396263, "scurrying": -0.9163465920187488, "chicago'": -0.8344508821040297, "brother": 3.2643708091921098, "wrinkled": -3.692337738428488, "employees.": -3.0375626586810753, "triple": 0.0, "cancellations": 0.0, "beautiful": -17.06666232667144, "stays,": 0.17121281166590716, "credit.": 0.3920317687650543, "olds": 0.9962893040817655, "decorating": 0.8582123559664084, "fake": -0.9102271987500814, "whole": -6.177136905149404, "shampoo.": -3.416444241911334, "because,": -0.07128442158713626, "situation.": 0.522296725473602, "1)": 2.675086257405117, "expensive,": -2.038604257535317, "charged": 27.84883796627824, "dj": -1.678406353753011, "treat": 0.6317948050257145, "adventure": -1.09087950003255, "wedding": 2.027472169780613, "belongings": 8.089186901894408, "sunday": 13.088470802682117, "\"no": -8.27368009895189, "curtains!": 0.823123494564156, "sized": -13.095827094590195, "season": 9.880997330902936, "rectify": 1.4863615650022783, "i.": 0.0, "so,": 2.816613501725148, "folio": 0.0, "note": 5.95892194518586, "saying": 14.126098561291583, "correctly": 3.3458759195364887, "also": -30.906451402903457, "$14": 0.0, "someone's": 0.0, "cheaply": -1.5790638630297507, "more\n": 5.776707245622029, "directions,": 1.4346071219321659, "hilton": -8.353883210728469, "written": -1.8385521775926046, "there.\n": -9.71030531866415, "dealing": 1.8270294902675608, "activity": 2.1287676583555757, "meal,": -2.754573269969403, "team": 2.0261050712844217, "chocolate": 4.99173230909446, "roll": 7.459149794935225, "highest": -2.053772540850205, "elegance.": -1.286895384415077, "lunch": 0.7193542087103704, "else!": 3.3276479395872665, "continued": -1.430505826443591, "taste.": -2.878458433695723, "dishes": 2.114836273680099, "prices": -17.00742139183647, "per": 1.4797213723064906, "main": 10.947138858147255, "luxurious.": -0.9666688366642797, "quick": -2.426469630883406, "spacious.": -0.9141331944534863, "cook,": 0.0, "elevators.": 0.0, "by,": 0.19634138402447757, "connect": 2.433044723650804, "wouldn't": 17.27237810038409, "shopping.": 12.022459475294578, "excuse": 1.988477312674956, "upgrade": -5.111906776902545, "excitement": -5.196276284096087, "requested": 17.899160210923768, "up,": 2.5730095696894733, "summer,": 3.6103118286569886, "throughout": -2.1842978972723133, "hyatt.": 6.0916606991732305, "son": 7.268341904823904, "4th": 2.5428032029164767, "dump.": 2.2770001952997854, "shula's": -10.83471128181759, "revisit": -8.19842458173296, "hated": 3.7323741943883864, "alludes": -0.4111060477833475, "delicious!": 0.243799231820845, "full": 16.456480697871232, "21st": 7.79382852678862, "array": -2.2615715122713365, "areas": -2.8095827094590193, "non": 4.980600221339756, "guaranteed": 1.9257860816353103, "ultimately": -1.937048369246794, "tasted": -9.729444697610832, "marriott.": 2.2846168869214245, "gone": -3.294186576394766, "earlier.": 0.0, "cleanliness": -10.400494759455764, "artwork": -1.4480828071089122, "upscale.": -0.9891283119588569, "calls": 6.58628995508105, "operated": 1.6362216001562397, "particularly": -8.398476661675673, "unhelpful.": 1.7500813749104878, "too,": -0.16587461753792077, "having": -5.41325434542022, "parties": 0.6429268927804179, "disaster.": 0.08918690189440792, "ago": -2.0166655816678603, "treatments.": 0.0, "caused": -1.4678731853394962, "tidy,": 0.0, "tipped": -2.7781394440466114, "doesn't": 2.8595794544626, "monaco": 10.583816157802227, "room:": 0.47841937373868887, "price": 17.90098300891869, "14": 6.280450491504459, "shopping,": -5.271466701386628, "shower,": 6.463641689994141, "hasn't": 1.283379988282013, "daughter.": -0.4111060477833475, "checkout,": 1.2581863159950524, "steps": -0.9649111385977474, "resting": -0.8994206106373283, "hotel;": -0.9937504068745524, "pool": -11.577371264891609, "station": -0.5277651194583686, "wish": 5.2730290996679905, "meal": -5.211965366838097, "searched": -1.8053512141136645, "billed": 0.8133585053056441, "tomato": 3.3276479395872665, "furnitures,": 3.2392422368335394, "quiet,": 8.055139639346397, "declined": 0.5434542022003775, "ill": 4.871948440856714, "needing": -3.8936918169390013, "directions": -3.2824034893561618, "its": -13.030271466701386, "time,": 4.49567085476206, "shop": -3.901568908274201, "anniversary": -2.632380704381225, "grounds": 0.0, "expected.": 4.505696243734132, "settle": -0.9785821235596641, "maker": -0.7765770457652497, "children": 0.7804830414686543, "lets": -0.967775535446911, "hallways,": 0.0, "anyway,": -2.0667925265282205, "card.": 3.349521515526333, "screen,": 6.7289889981121025, "well-appointed.": 0.0, "visitor": 0.8582123559664084, "best": -5.968426534730812, "parents": -1.3913156695527635, "pleased": -4.087494303756266, "thats": 6.083197708482521, "corrected": 2.4806327713039513, "channel.": -3.7411626847210466, "amenities,": -3.6401926957880346, "pleasant,": -3.490267560705683, "touch": 10.813879304732765, "evening.": 8.07356291908079, "beer": 2.822212095566695, "technically": -3.7411626847210466, "chose": -3.419373738688887, "views,": 2.995898704511425, "knocking": 0.0, "boy.": 0.0, "gap": 3.1047457847796367, "underground": 0.0, "soap": -5.23175574506868, "reverse": 1.8415467742985483, "ignored": -0.46552958791745325, "real": -3.227328949938155, "declined.": 2.6856324458043095, "enter": -1.1749235075841415, "fantastic!": 6.94167046416249, "needed,": 0.0, "somewhere": -12.870125642861794, "sticking": -0.8994206106373283, "yet.": 0.674370158192826, "ritz": 2.816613501725148, "(they": 0.08423930733676188, "leaves": 0.02434737321788946, "planned": -6.388255972918429, "greeting": 0.41221274656597884, "september.": -1.9015689082742009, "anytime": -1.2284356487207864, "surprise": 0.7723455504198945, "accepted": -4.874422238135538, "decorative": 1.3198359481804571, "wake-up": -2.9203176876505434, "classy": -9.72645010090489, "sirens": 0.0, "guest": -16.749104875984635, "liked,": 0.0, "facilities.": 0.20910096998893302, "tidy": 0.9704446325109042, "that!": -5.630753206171473, "carlton": 1.911594297246273, "honeymoon.": -1.8394635765900658, "strong": 3.431677625154612, "giant": -1.8567801575418268, "blankets": 5.436104420285138, "complaint.": 0.0, "supplied": 1.7293795976824426, "free!": 1.7375170887312024, "better.\n": 4.071154221730356, "unprofessional,": 1.5221665256168218, "neat,": 0.0, "so-so.": 1.9162814920903588, "explain": 0.6687715643512793, "smoke": -7.850074864917649, "say,": 1.9358114706073823, "bell": 10.38786537334809, "attractions,": -2.5609660829373087, "choice.": -4.04941084564807, "impolite": 2.2700996028904368, "referred": 0.7405767853655361, "orange": 0.9593776446845909, "toast,": 1.4798515721632706, "friendliness": 0.0, "online,": 0.8831456285398086, "waiter": -2.7798320421847533, "would.": 4.48772866349847, "linens,": -0.4096087494303756, "join": -1.8757242367033395, "\"complimentary\"": -1.1258381615780224, "massage.": -3.5764598658941473, "teenagers": -0.014842783672937959, "normal": -0.4707375821886597, "tied": -0.9376993685306946, "early.": -3.85951435453421, "towers.": -1.4747086778204546, "bringing": 1.0977149925135081, "channel": -0.988412212746566, "hearing": -1.8302193867586745, "resolve": 0.8560640583295358, "blocks,": 3.740381485580366, "we": -0.837510578738363, "help.": 5.1357333506933145, "we'd": -8.168934314172255, "find.": 0.0, "knickerbocker!": 1.9425167632315605, "stylish": 3.291712779115943, "cute": 2.548662196471584, "(which": 5.216717661610572, "24-hour": -1.8649176485905865, "ambiance.": 1.2727036000260399, "wife,": -0.0035804960614542747, "slow": 11.518651129483757, "english": 1.7647288587982553, "month": -2.419634138402448, "looks": -11.394896165614218, "$400": 7.10754508170041, "65": 1.9253954820649697, "yes": 5.394831065685828, "internet.": 5.310005858993555, "seriously,": 0.0, "argued": -0.7659657574376668, "table,": 0.9378295683874748, "star\"": 3.2980925720981706, "loud": -16.939391966668836, "get": 16.622680815051105, "great": 22.522361825401994, "reason": 3.078380313781655, "hanging": -0.38070438122518063, "vent": -2.50426404530955, "sleep": -3.2008983790117833, "maid": -4.304211965366838, ".": 22.942842262873512, "priority": -3.328038539157607, "cozy": -0.24731462795390924, "start.": 1.600807239112037, "lady!": 3.5976173426209233, "wi-fi,": -2.833148883536228, "listening": 1.2031768765054358, "tripadvisor.": 2.5099277390794867, "supply": 1.9658225375952088, "knocked": 1.3401471258381616, "appreciated.": 0.7254736019790378, "showers": 1.8837315278953193, "yours": 0.9997396002864397, "return.\n": -1.837250179024803, "wasn't": 17.48525486621965, "merely": 0.0, "relieved": -0.09302779766942249, "fairmont,": 1.7868628344508821, "establishment,": -3.7632315604452833, "name": 6.767658355575809, "confirming": 3.2088405702753726, "past": -2.4461949091856, "proper": 0.7455243799231821, "$16": 2.6505435844020573, "inconvenient.": 2.643903391706269, "its'": 7.220623657313977, "theater": 4.690449840505176, "centrally": 8.829763687259945, "unkempt": -1.633096803593516, "tell": 8.474643577892063, "annoying.": -1.090098300891869, "paintings": 0.0, "worked.": -0.9912115096673394, "tasty": 2.630557906386303, "relaxed.": -2.691100839789076, "issues.": 1.6772345550419894, "cheese.": -4.755419569038474, "demanded": -6.127335459930994, "unfriendly.": 2.1005142894342814, "actually": -22.17987110214179, "crib": -8.27368009895189, "boat": 0.5843369572293471, "flat": -4.312284356487208, "stars.\n": 0.0, "suite.": 7.188399192760888, "bathrobe": -5.927218280059892, "chicago!\n": -1.2411301347568517, "inspect": 4.22277195495085, "struggling": 0.0, "cancelled": 0.0, "slightly": 6.3608489030662065, "renovation,": 0.0, "you,": 5.639476596575744, "borrow": -1.6483301868367946, "me!": -0.16170822212095567, "adjoining": -1.6294512076036716, "nightmare": 0.19601588438252715, "woman": 1.491829958987045, "sales": 4.3782956838747475, "let": 7.254931319575549, "interested": 0.119848968166135, "staff.": 4.458759195364886, "ave": 4.969337933728273, "before": 1.1796758023566174, "district": 5.877937634268602, "one": 15.788229932947074, "shot": -5.601197838682378, "on,": -1.4090879500032552, "ruin": 1.8664149469435585, "signing": 0.0, "separated": -2.4310917257991016, "possibly": 0.5681270750602174, "luggage": -9.856454657899876, "hand,": 1.3823318794349326, "dress": 0.4517935030271467, "$5.00": 0.6632380704381224, "walls": 4.692272638500097, "sort": -1.2398281361890502, "such": 1.214048564546579, "sufficient": 0.97519692728338, "boring": -4.055725538701908, "horrendous": 2.6228761148362736, "bucks.": 0.0, "trader": 0.044528351018813916, "soft": -4.616821821495996, "chillout": 1.913286895384415, "shopping": -26.38168088015103, "ball": 0.0, "celebrity": -3.8961005142894343, "motel.": -5.4146214439164115, "poor": 3.2493327257340017, "fewer": -0.9984376017186382, "service": -10.773517349130916, "past,": -1.766877156435128, "pick": -2.4535512010936786, "bellman,": 3.47939587266454, "boyfriend": 0.31254475620076816, "transportation": 1.986068615324523, "stars.": 2.7295748974676126, "chicago.\n": -17.278692793437926, "toe": 1.0844997070503222, "bargain.": 0.0, "bonus": -6.775470346982619, "1/2": -2.085931905474904, "complementary": -5.059566434476922, "smiling": -2.5187813293405377, "vacation,": -1.9662131371655491, "said": 3.1757047067248227, "dessert": 0.0, "vacuum": -4.036846559468785, "she'd": -2.6492415858342557, "done!": 0.4527700019529979, "hoped": -1.8459735694290735, "isn't": 3.416574441768114, "lighting.": 2.62808410910748, "stars,": 1.654514680033852, "pressure": 2.119197968882234, "lamps.": 0.0, "wonderful,": 0.7759260464813491, "ceremony": 3.871818240999935, "large": 18.250374324588243, "began": -0.844541371004492, "recommended": -7.8759846364169, "went.": -1.8842523273224399, "caliber": 2.2770001952997854, "wanted.": -1.8845127270360003, "talbott.": 6.437146019139379, "workout.": 0.0, "poor.": 1.6043877351734914, "\n": 87.71616431221926, "downtown.": 2.871688041143155, "penninsula": 0.0, "warm.": -3.2455569298873774, "respect": -3.1798060022133976, "genuine": -1.8252717922010286, "clear": 1.472820779897142, "mind": 4.3393659266974804, "toiletries": -4.3019334678731855, "applies": -2.625024412473146, "papers": 0.6748909576199467, "it.": 12.072000520799428, "sterile": 2.666883666427967, "cold": -12.301087168804115, "frequent": 1.9541696504133845, "cleaned.": -3.662001171798711, "comfy": 7.071675021157477, "know,": -0.9984376017186382, "fair.": -1.6329666037367359, "pressure.": -2.5221014256884318, "min": 0.48382266779506544, "weekends": 2.8483822667795065, "bother": -3.941344964520539, "weekend.": -5.428422628735108, "bedrooms": 0.0, "response": 4.226547750797474, "chicago!": -7.664865568647874, "occasionally": 7.906060803333117, "being": -21.04010155588829, "zest,": 0.20910096998893302, "hour.": 1.1096282794088927, "someplace": 10.622160015623983, "realize": 0.42106633682702954, "@": 8.317948050257144, "personal": -17.870451142503743, "western": -2.987696113534275, "match,": -2.9531931514875334, "kit": 1.5266584206757372, "truly": 0.8510513638434998, "stops": 3.0002603997135604, "sears": -1.5700800729119198, "bring": -1.7786602434737322, "polite,": 4.382331879434933, "seeing": -6.885293926176681, "affina": 4.22368335394831, "hotels.": -13.773973048629646, "booked.": -1.0753857170757113, "verify": 5.083978907623202, "trolley": 1.4798515721632706, "stark": 1.7782696439033918, "line.": 9.712063016730681, "twice": -0.4424842132673654, "sofa": 8.747021678276154, "peeling": 3.7845843369572294, "placed": 6.894928715578413, "buffet": 9.061910031898964, "around": -32.19901048108847, "within": 14.191133389753272, "kitchen.": -2.8630948505956644, "tower.": -0.3266714406614153, "loved": 3.2133324653342883, "measures": 1.8402447757307467, "bare": 4.651129483757568, "incredible,": 0.16112232276544491, "friendliest": -0.600872339040427, "sensitive": 4.511359937504069, "musical": -1.6573139769546255, "manhattan": 0.0, "cousin": -14.088535902610507, "ride": 4.956903847405767, "business.": 5.884968426534731, "gorgeous": -4.295228175249007, "dined": -3.8112753075971617, "king.": 1.9147190938089969, "beat.": 3.3276479395872665, "watch": -2.0445283510188137, "rang": -3.4778985743115682, "replenished.": 7.33871492741358, "itself": -5.358375105787384, "deep": 0.10852158062626138, "resort": -1.76030206366773, "stylish,": -0.38760497363452906, "flat-screen": -0.8534600611939327, "clean....": 3.800859319054749, "husband,": -0.819022199075581, "rude,": 1.1299394570665973, "provided.": 2.069396523663824, "clothing": 0.0, "25": 1.4398802161317623, "flight,": 5.01620988216913, "mysteriously": -2.9531931514875334, "husband.": 2.5972918429789726, "spend": -28.37093939196667, "i'd": 4.643838291777879, "tasty!": -3.4898769611353426, "covers": 5.687650543584402, "instead,": 3.2638500097649894, "linens": -11.194844085671505, "returned": 17.65379858082156, "covering": -3.6823774493848056, "photo": -1.304081765510058, "whatever.": -1.459540394505566, "brought": -8.297897272313001, "behind": 8.72710110018879, "top": 16.508170041012956, "polite": -6.890957619946619, "stale": -2.151943232862444, "with.": 2.7179871102141786, "diamond": 1.574376668185665, "luck": 1.5071935420871037, "waitress": 0.9050192044788751, "tips": 0.9821626196211184, "loud.": 0.9903001106698782, "bin": 3.7682442549313198, "minded": -0.7500162749820976, "morning": 7.6094004296595275, "headache": -0.8994206106373283, "impeccable.": -2.1798060022133976, "stocking": 0.7689603541436104, "gem": 5.350302714667014, "memories": 0.6798385521775926, "twenty": 1.3790117830870385, "sheets,": -5.011913286895385, "begin": 0.5964455439099017, "eventually": 8.093678796953323, "going": -8.828526788620533, "mentioning": 1.2195820584597357, "chatting": 3.0861923051884643, "require": 6.583490658160276, "management.": 4.748649176485905, "sorted": 0.0, "late,": -0.9163465920187488, "door": 8.705943623462014, "laptop": 0.07753401471258381, "smells": -2.4203502376147386, "full-service": 0.4517935030271467, "maintaining": -1.286895384415077, "nightmare.": 1.126424060933533, "color.": 0.895058915435193, "hotels.com": 1.5046546448798908, "counter.": -1.0518846429268929, "ave.": 14.201354078510514, "space": 20.763036260660115, "younger": 0.41449124405963156, "choose": 5.382527179220103, "really,": 3.861076752815572, "linens.": 0.11776577045765249, "aspect": -7.57841286374585, "appetizers": 1.8591888548922597, "complicated": -2.015754182670399, "had!": 0.0, "funky": 3.1583881257730617, "granted": -6.178894603215936, "obtain": 3.4575873966538637, "windows.": 3.029945967059436, "liquor": -1.1445218410259748, "tourists": 2.186250895124015, "number": 7.714016014582384, "arguing": -2.0373022589675154, "importantly,": 3.5896100514289433, "bench": -0.9984376017186382, "ditto": -3.3755614868823645, "assistant": 0.4541371004491894, "italian": 2.629190807890111, "firm": -3.7411626847210466, "obviously": -8.906191003189896, "french": -7.597422042835753, "par": 0.0, "lockwood": -3.304211965366838, "mention,": -4.988216912961396, "cost": -8.822667795065424, "thing.": -1.459540394505566, "produced": 1.7051624243213332, "groceries": -0.8473406679252653, "stepping": -9.639476596575744, "(we": 6.558492285658486, "you.\n": -1.589219451858603, "airy": -3.201809778009244, "$1.00.": 0.9573595469044984, "drunk": 0.0, "therapy": 0.0, "gorgeous!": -3.535512010936788, "rush.": 2.204934574571968, "attentive.": 0.0, "replacement.": -0.9891283119588569, "facility.\n": 6.108716880411432, "turned": -27.683158648525485, "chicago;": 0.32309094459996096, "activate": -3.523989323611744, "wondering": -1.8244254931319577, "furniture.": 5.3957424646832886, "out.\n": 0.9852874161838423, "mins": 1.7954560249983724, "4,": 2.204934574571968, "overlooked.": -2.625024412473146, "dry": -2.407265152008333, "bud": 0.0, "omni,": 0.6313391055269839, "lounge": 8.355706008723391, "surprised": 13.570210272768701, "either,": -0.9707050322244646, "angie": 4.34659201874878, "gift": 1.4299850270164702, "weeks": -1.6334223032354664, "select": -9.954820649697286, "saturday": 4.542282403489356, "anyway": -3.648590586550355, "reception,": 2.4862964650738886, "facing": 12.771954950849555, "caught": 0.3676192956187748, "mirror.": 1.0572228370548793, "wifi.": -3.2700996028904368, "definite": -2.38838617277521, "?": -1.3324653342881323, "housekeeping.": 2.3971095631794803, "ready.": -6.849814465204088, "beginning": -5.262808410910748, "(a": 0.3690514940433566, "grant": -7.492285658485775, "a/c": 0.0, "conditioner": -6.62821430896426, "anyone,": 0.0, "holiday": 6.40472625480112, "day": 21.188659592474448, "during": 9.874292038278758, "chocolates": -3.4557645986589414, "downtown,": -3.1048759846364167, "suggest": 1.3443135212551267, "cart": 0.0, "present": -3.3336371329991534, "there.": 3.612264826508691, "delivered,": 0.8594492546058199, "wee": -4.458759195364885, "resembled": 0.0, "faster.": -1.9336631729705098, "code": -7.234685241846234, "removed": 1.3004361695202136, "people.": 3.9524770522752424, "repaired": 1.8841221274656599, "workout,": 0.3676192956187748, "boards": -1.93385847275568, "contact": 1.8211053967840636, "cost.": 7.772931449775405, "emails": 4.76095306295163, "1st": 0.0, "bonus.": 0.0, "matters": -1.9451858602955536, "ae": 3.0011066987826314, "someone.": 1.8682377449384806, "hour": -1.59494824555693, "extended": 0.9133519953128052, "do.": -3.5789336631729705, "affinia": -8.499251350823513, "55": 0.813228305448864, "apologies": -5.312544756200769, "long": 2.6426013931384675, "back!\n": -6.66896686413645, "inches": 0.0, "meal.": -7.615650022784975, "opinion,": -1.3324653342881323, "web": 4.662001171798711, "lit": 1.3616301022068875, "special,": -0.979298222771955, "exemplary": -4.484148167437016, "annoyance": -1.9119848968166135, "dust": -8.836989779311242, "keep": 0.16353102011587795, "orders": -1.4647483887767723, "efficiently": -4.026430570926372, "comforts": -1.831391185469696, "higher": 0.3807043812251807, "\"we": 5.915109693379337, "tv's": 0.41449124405963156, "hard": -11.953713950914654, "conceirge": 3.9838552177592605, "designer": 0.0, "refrigerator": 1.1449775405247054, "hassle": -7.234685241846234, "air.": -8.639802096217695, "significant": 1.4017967580235662, "hole": 6.572358570405573, "remind": -0.16912961395742465, "--no": 0.0, "minutes.": 3.0392552568192177, "29th": 5.948831456285398, "policy": 10.426730030596968, "boarding": 5.122322765444958, "call,": -0.5778920643187293, "here,": 4.456936397369963, "claims": -7.262873510839138, "expectations": 1.3586355055009438, "figure": 1.9219451858602956, "weather": -4.014517284030988, "variety": -7.212746565978778, "program": 0.9832042184753598, "area.\n": -2.4982097519692728, "apparently": -11.362085801705618, "ambiance": -1.8517674630557908, "each": -21.687585443656012, "drab": 5.269188203892976, "guests.\n": -0.6907753401471258, "culture": -5.675021157476727, "frequently": 6.823253694420936, "called": 15.350172514810234, "about.": -1.213983464618189, "hairs": 0.19673198359481806, "lots": 7.360588503352647, "now": 8.980600221339756, "indoor": -23.278432393724366, "contemporary": -5.047978647223488, "apparently,": -1.8154417030141268, "lug": -1.93385847275568, "than": 6.400755159169325, "costs.": 1.994271206301673, "watching": -0.054293340277325686, "issues": 5.917843890371721, "morning,": 0.8888744222381355, "out,": 5.604973634529002, "chain,": -0.9163465920187488, "quick,": 0.0, "information": 7.523468524184623, "display": 0.0, "dust.": 2.7531410715448215, "fine,": -0.9097063993229607, "book": -3.0351539613306424, "suggestions": 4.317101751188074, "arrived,": 6.9054749039776055, "type": -9.012954885749625, "bars": 7.680424451533104, "closed": 5.832888483822668, "centre.": 2.5310852158062627, "stay!": -8.819738298287872, "rush": 3.6573139769546255, "reasonably": 9.005142894342816, "what,": -0.9992839007877091, "was.": 2.3292103378686284, "out.": -7.420675737256689, "room)": 2.751383373478289, "allegro.": 15.21502506347243, "dissatisfaction": -2.3010220688757244, "2011.": 0.0, "rating.": 0.9501334548531997, "(it's": 0.6500227849749365, "elected": -0.36416899941410064, "reservation": 15.006184493197058, "stop": 12.689994141006444, "(the": 4.60334613631925, "busy": -2.2025909771499252, "junior": -3.6233969142633944, "system!": -0.5209296269774104, "recommend.": 4.235726840700475, "demand": -4.618254019920578, "you": 0.13501725148102306, "mattresses": 6.7830219386758674, "finally": -26.800729119197968, "gm": 3.4285528285918887, "tend": 2.548662196471584, "omni.": -0.13534275112297375, "avenue.": 4.870190742790183, "wear,": 1.6010676388255973, "taking": 1.6944209361369706, "wanted": -34.717336110930276, "computer": -2.994075906516503, "everywhere.": 3.590130850856064, "shops": 3.5967710435518523, "mental": -1.8842523273224399, "downstairs": -2.918885489225962, "usage,": -1.286895384415077, "airlines": 0.0, "doesnt": 2.77670724562203, "approched": 0.0, "unprofessional.": -1.7643382592279149, "claim": -0.9530629516307532, "scored": 0.9991537009309289, "since": 12.387604973634529, "but,": 2.100709589219452, "advance.": 4.406418852939262, "coffeemaker": 3.7415532842913874, "espn": -3.7411626847210466, "hotel!!!\n": -0.5808866610246729, "iron.": -0.7353687910943298, "peeling,": 0.0, "(about": 0.7689603541436104, "comparable": 5.960614543324002, "prime": 3.2359872404140355, "though,": 7.080919210988868, "cereal,": -1.6553609791029231, "dimed": 2.817524900722609, "\"do": -0.5646767788555432, "contributed": -4.035219061259033, "keys,": -0.988412212746566, "tax": 6.125968361434802, "decoration": -1.133129353557711, "dining.": -1.86784714536814, "center.": -0.17466310787058137, "country": 0.0, "car.": 9.14875333637133, "tries": -5.728337998828201, "treatments": -2.7534014712583814, "unfortunate": -4.630427706529523, "confusion": 0.6989128311958857, "guy's": 0.0, "face.": -0.9102271987500814, "key": -4.660438773517349, "professional.": 4.513703534926112, "connection": 0.8302193867586746, "room...": -1.3556409087950003, "2008.": 0.9749365275698196, "difference": 4.051494043356552, "rudely": -7.12453616301022, "stiff": -3.0046871948440854, "dishwasher.": 3.262027211770067, "tiny": 5.769220753857171, "elevator.": 1.5349261115812773, "tub.": -3.6950068354924808, "promised": -10.419178438903717, "layout": -2.9419959638044397, "order.": -2.6055595338845126, "sofitel,": 4.814139704446325, "system": -5.839528676518456, "managers,": 0.0, "situated": 1.0150380834581083, "glasses": 0.5877872534340212, "are.": -0.9785821235596641, "drove": 4.580496061454332, "steaks": -4.284226287351084, "disappointments": -0.6782761538962307, "plumbing": 0.0, "it\",": -1.8842523273224399, "museums,": -2.165874617537921, "conrad": -7.970509732439295, "bed;": -2.4111711477117375, "microwave": 0.9770848252066923, "still,": 3.6036065360328102, "place,": -14.254670919861988, "handicapped": 0.9325564741878783, "desk.": 16.840700475229475, "shower.": 4.276349196015884, "here!\n": 0.7854957359546905, "spa": -12.418918039190157, "hold": 3.862899550810494, "old.": -2.732113794674826, "anywhere": 10.21482976368726, "music,": 0.9821626196211184, "tub": -4.346526918820389, "spotless.": -1.3324653342881323, "fresh": -1.4450231104745785, "service.\n": -0.9097063993229607, "extravagant": -1.9015689082742009, "need": 10.6601132738754, "organized": -1.678406353753011, "burke": 2.05806913612395, "cookies": 1.9960289043682051, "wow,": -0.13911854696959833, "had,": -4.55308899160211, "13th": -6.9557971486231365, "menu,": 3.3276479395872665, "stiff.": -5.104875984636417, "city.\n": 0.97519692728338, "park.": -7.4105852483562265, "day,": 10.35401341058525, "head": 10.219191458889394, "key,": -1.5234034242562333, "ballroom": -3.8382266779506544, "seats": 7.904563504980144, "pictures": -5.766942256363518, "reaching": -0.8642666493066857, "splurge": -2.7899225310852156, "drive": 5.874552437992318, "paid": 12.555758088666103, "carpeting": 1.9020897077013215, "tripadvisor": 4.002018097780092, "fiancee": -4.2072130720656205, "sofitel": 0.11496647353687911, "requested,": 0.007421391836468949, "tub,": -0.7875789336631729, "locked": 0.37308768960354144, "company,": -1.7427250830024086, "right,": 3.871818240999935, "size,": 0.0629516307532062, "came": 0.4814139704446321, "expectations.": 2.6012629386107675, "board": 7.006119393268667, "delivered.": -0.9945316060152334, "filthy": 0.6483301868367944, "them,": 0.45062170431612536, "bar": 20.418462339691427, "arriving,": 6.233513443135212, "answer": 7.222902154807629, "bedding": 2.766356357008007, "equivalent": 3.4531606015233383, "no,": 5.3391055269839205, "desk": -8.29763687259944, "clair": 0.0, "doing.": -2.5779571642471195, "unpleasant": -6.787578933663173, "dated.": 6.082156109628279, "well-equipped": -3.4502962046741747, "upholstered": -0.08912180196601782, "gym,": 1.4095436495019855, "cleaning.": -3.125056962437341, "top-notch": 2.4037497558752685, "shouting": -2.9531931514875334, "color": -3.9408892650218084, "inviting.": -3.266909706399323, "basic": -3.582123559664084, "appear": -2.1270750602174338, "reception.": -7.569038474057678, "him": -6.647028188268993, "night,": 8.572944469761083, "dollars": 14.040296855673459, "refurbished": 2.9960940042965953, "attentive": 7.722479005273094, "round": -1.263589610051429, "helpful": 17.316515851832563, "recomend": -6.892910617798321, "impeccably": -2.156500227849749, "elegance": 2.441247314627954, "trip.\n": -4.039971356031509, "in-house": 0.6394765965757437, "barking": -4.904758804765315, "hotel,": -3.108977280124992, "luxury": -54.660829373087694, "handle": -4.299069071024022, "tiny.": 5.650934183972398, "request,": 3.768048955146149, "detail,": -7.23175574506868, "extremely": 6.525096022394376, "fee,": 0.0, "well,": 0.29229867847145363, "talked": -5.394375366187097, "sliding": 3.850465464487989, "$40": -1.9210337868628344, "stores.": -1.3771238851637264, "go": 0.252587722153506, "trash": -7.1343011522687325, "upstairs": 3.9046286049085346, "properly": -4.235336241130135, "skyline.": -3.4308964260139314, "result": 3.1438057418136838, "break": 0.11353427511229741, "rates,": -0.6907753401471258, "steak": -3.4855152659332074, "pot": -3.5665646767788557, "pricey": -0.03254996419503939, "conference,": 4.1348870516242435, "ourselves": -0.8761148362736801, "old-fashioned": -1.8955146149339235, "brother,": 2.995117505370744, "dollar,": 0.33077273614999025, "outside.": -1.5655881778530043, "girls": -3.3540134105852486, "changed,": 2.4871427641429595, "box": 0.6138272247900527, "stressful": -1.141397044463251, "front,": 6.52092962697741, "partake": 0.0, "$24": 2.8690189440791616, "asleep.": 0.20187487793763426, "acting": 0.045179350302714666, "accommodations": -13.235661740772086, "cleanest": -2.878458433695723, "neighborhood.": -2.8796953323351344, "brick": -0.8516372631990103, "st.": 0.8609465529587917, "charm": 10.461298092572099, "frayed": 0.9704446325109042, "pretty": -3.7046416248942124, "woke": 0.17186381094980785, "house.": 0.288457782696439, "inquiring": 1.018878979233123, "essentially": -1.374454788099733, "among": 0.49925135082351413, "confirm": 1.9828787188334094, "neighbors": -3.3293405377254084, "monaco,": 3.9252652822081897, "digital": 3.82631339105527, "competent": 4.3150836534079815, "interest": 3.0011066987826314, "vacations": -1.7102402187357595, "be,": 3.3765379858082154, "got": -0.13866284747086777, "earned": -0.5271792201028579, "further,": -7.680424451533103, "advance,": -1.3310331358635505, "forwarded": 0.0, "feeling.": 2.201093678796953, "form": 2.052210142568843, "girl": -1.4340863225050453, "re-clean": 2.549443395612265, "person,": -0.5582318859449255, "ride.": 0.0, "traveling.": 0.0, "aged": 2.593581147060738, "insult": 3.7617993620207018, "stocked": -0.8427836729379599, "magnificent.": -1.6329666037367359, "gratuity.": 7.483106568582775, "(like": 1.5789987631013607, "is.": 5.441833213983465, "royalty": 1.2676258056116139, "complaint": 6.491113859774755, "noted": 0.3199661480372372, "800": 2.11568257274917, "effort": -2.0781850139964844, "soup": 3.7294446976108326, "sharing": -3.1352125512661937, "place.\"": 0.514094134496452, "excellence": 0.0, "separate": 9.67684395547165, "views.": 0.0, "sun": 2.3915109693379337, "wear": 1.3236117440270816, "wander": -2.5179350302714667, "different": 6.705943623462014, "and/or": -1.241325434542022, "interview": 8.424060933532973, "spaces": 1.0042314953453553, "entitled": 3.5737256689017642, "experience": -24.8024868172645, "assisted": 3.0011066987826314, "look.": -0.9097063993229607, "jeans": -1.713169715513313, "high": -15.827485189766291, "bathroom;": 0.0, "faint": -8.14836273680099, "disappointed.\n": 1.2605950133454853, "removed,": 0.0, "glamorous": 0.6605038734457391, "route": 0.0, "suite": 7.953844150771435, "acted": -7.944534861011653, "scrambled": -4.693314237354339, "employee": 8.245296530173817, "printing": 4.237744938480567, "spring": 0.9704446325109042, "rested": -7.0662717271011, "peaceful": -0.3029099667990365, "bathroom:": 1.9379597682442549, "eclectic": -0.05839463576590065, "job.": -0.9436234620141918, "definetly": -13.08287220884057, "fantastic.": -2.750602174337608, "5": 21.128377058785237, "happened.": 9.290866480046873, "beware": -1.732178894603216, "that?": 3.3731527895319315, "classy,": -1.8087364103899486, "tea": 1.2687325043942452, "confirmation": 1.8035935160471324, "filthy.": -1.9967450035804961, "luckily": 2.436495019855478, "collection": -5.6729379597682446, "impressive": 0.20910096998893302, "luggage.": 6.448538506607643, "visit": -11.33044723650804, "confident": -0.9163465920187488, "here!!": 0.0, "city's": -2.625024412473146, "memorable": -0.97526202721177, "reserve": -2.9179740902285007, "couple": -0.6229412147646638, "muggy": -2.5584271857300958, "planning": -3.431352125512662, "week.": 4.23937243669032, "beds.": 7.096933793372827, "leading": -2.651324783542738, "floor,": -0.9759130264956708, "hide": 3.676192956187748, "chosen": -1.9725929301477767, "again,": -15.453811600807239, "near": 8.060673133259554, "inside!": -2.861467352385912, "via": 3.681791550029295, "they've": 1.5789987631013607, "mom": 3.766812056506738, "special.": 9.845452770001952, "birthday.": 1.0438773517349131, "serious": -2.8434346722218606, "smallest": 0.9620467417485841, "dozen": 7.7624503613046025, "email.": 0.19601588438252715, "month.": -10.541110604778336, "tv.": 1.509862639151097, "well": -1.6879109432979629, "insurance": 0.0, "gotten": 1.4126033461363192, "overwhelmingly": -0.35961200442679514, "miss": -1.4674825857691558, "guy": -4.493652756981968, "research": -1.2954885749625675, "caring": -2.238851637263199, "10-15": -5.06581602760237, "not": 5.510383438578217, "lousy": 0.5821235596640844, "construction,": 2.1906776902545406, "phones": 5.722544105201484, "degrees": 1.4730160796823124, "aesthetic": -1.93385847275568, "remainder": -3.0721958205845974, "selected": 3.740381485580366, "thermostat": 4.3905995703404725, "entertain": 2.673393659266975, "charging": 4.112557776186446, "red": 7.640518195429985, "cigarette": -4.2564286179285205, "evening,": 0.944599960940043, "special).": 1.8858147256038018, "sheraton,": 4.603997135603151, "too!": -0.9135472950979754, "honor": 13.990169910813098, "fridge": -2.1600156239828134, "anniversary,": -8.505045244450232, "charming": 2.204934574571968, "woudl": 1.6532777813944404, "usually": -8.468003385196276, "apologize": -3.828136189050192, "night's": -5.504980144521841, "ashtray": 0.0, "location...": 0.9783868237744938, "five-star": 2.6482650869084043, "nearby.\n": 2.534014712583816, "swim": -0.2428227328949939, "honest": -3.202395677364755, "living": -1.0162749820975197, "mile": -3.804244515331033, "unbeatable": 0.0, "general": 7.505631143805742, "hot": -16.077534014712583, "involved": -0.2583165158518326, "marriott": 0.7813293405377254, "disturb'": -0.9051494043356553, "travelers": -0.9043031052665842, "besides": -4.738949287155784, "elegant,": -8.52092962697741, "bread": 5.097324392943168, "collected": 1.8608163531020117, "miserably.": 3.747477377774884, "blamed": 0.0, "ten": 7.8431091725799105, "noisy.": 7.766551656793178, "cash": -3.50406874552438, "forget": -5.959377644684591, "agent": 3.1438057418136838, "long,": 4.337478028774168, "redeeming": 2.204934574571968, "hotels\"": 0.7493001757698067, "expense": 1.1573465269188203, "insulation": 1.7293795976824426, "led": -0.1309159559924484, "walked": -3.5647418787839333, "apartment,": 3.1292233578543063, "lacked": -3.4888353622811015, "swissotel.": 1.7304862964650738, "chairs,": 3.0011066987826314, "up": -21.24913742594883, "unsanitary": -4.112622876114836, "desired.": 0.13410585248356233, "totally": 0.45635049801445216, "exciting": -8.056441637914197, "impossible.": -1.8459735694290735, "unable": 15.225506151943232, "dissatisfied.": -0.9431026625870712, "spectacular.": 1.998307401861858, "set.": 0.4517935030271467, "activities": 1.9901699108130981, "vacuuming,": -1.4407265152008333, "unit": 2.7336110930277977, "fun": -22.117765770457652, "evidently": 1.87604973634529, "visit.": -3.137816548401797, "behold,": 1.5633096803593516, "comfortable.": 5.486036065360328, "check-in": 5.12382006379793, "up.": 11.75359677104355, "accommodating": -7.027211770067053, "things": 3.290020180977801, "twist.": 0.5843369572293471, "sheets": -2.1849488965562136, "nearest": 0.0, "memory": -5.593841546774298, "drawer": 0.3574637067899225, "selection": 3.5575157867326346, "sister's": -3.1431547425297834, "hairdryer": 0.8594492546058199, "romantic": -1.7285983985417617, "bookit.com": 3.548727296399974, "overpriced,": 1.0072260920512988, "equally": -0.9242887832823384, "easy": -10.940759065165029, "getaway": -7.065099928390079, "downhill": -0.9899095110995378, "convenience": -1.8753987370613892, "ensure": 1.838096478093874, "woodwork": -0.2159364624698913, "two-night": 0.4698261831911985, "treasure.": 0.6582253759520864, "tranquility": 0.9566434476922075, "ignore": 0.6905800403619555, "easy.": 0.43265412408046355, "knock": 2.0244775730746696, "forgot": 6.025974871427642, "scrape": 0.0, "mi": 0.9557971486231365, "managers": 11.151292233578543, "summary:": 0.0, "odor": 8.223488054163141, "day)": 0.20910096998893302, "staffed": -1.8294381876179937, "suites.": -6.707115422173036, "whilst": 0.0, "away.": 4.516893431417225, "deluxe": -5.292493978256624, "godsend.": 0.0, "(how": 0.2527179220102858, "available,": -1.638044398151162, "closet.": 0.9378295683874748, "$13": 2.556213788164833, "while": -34.476922075385716, "apartment.": 2.8308052861141855, "tends": -1.8252717922010286, "pay": -17.219321658746175, "morning)": 0.0, "yet,": -4.466506086843305, "february": 0.8992253108521581, "suggesting": 5.329470737582189, "on.": 9.634594101946488, "attached": 11.864331749235076, "interesting": 3.232992643708092, "bedding,": -1.802421717336111, "decor": -1.2819477898574312, "staff!": 5.525942321463447, "game": 1.9556669487663563, "vending": 2.6482650869084043, "here.": -21.095306295163077, "alright,": -1.0514940433565523, "plans": -0.9027407069852224, "registration": 1.1994010806588113, "relatively": -2.120565067378426, "touched.": -2.4218475359677103, "clark": 0.9378295683874748, "nite": 0.9456415597942842, "disregarded.": 3.1047457847796367, "bar,": -13.021482976368725, "dead": -4.412277846494369, "every": -7.565132478354274, "be!": -2.003971095631795, "topped": 2.540329405637654, "deserve": 1.748844476271076, "value!": 1.6310136058850335, "sad": 3.914784193737387, "hate": -1.8014452184102598, "refer": 0.9983725017902481, "suddenly": 3.4888353622811015, "--": 12.444827810689407, "or": -7.00800729119198, "view\".": 3.5068029425167633, "broken.": 0.5659787774233449, "modest": 0.08905670203762783, "problems,": -0.9163465920187488, "sinks,": 1.7868628344508821, "back.": -6.787188334092833, "(": 7.663368270294903, "smoking": 16.221990755810168, "automatically": -1.1217368660894473, "lose": 0.9821626196211184, "badly": 2.3547946097259294, "opening": 4.696178634203502, "thursday": -2.775340147125838, "shrugged": -0.9785821235596641, "frustratingly": 2.7336110930277977, "been": -14.566043877351735, "establishment": -7.279929692077339, "biggest": 7.722023305774363, "looking": -21.94316776251546, "hire": -0.8994206106373283, "parking.": 0.8060673133259554, "make": -31.395742464683288, "line,": -3.3336371329991534, "crew": -0.42933402773256946, "$250": 1.781850139964846, "dinner,": -3.52893691816939, "door,": 5.428813228305449, "september": 0.20454397500162746, "o'hare": 0.7689603541436104, "go.": -0.13872794739925787, "advertised.": -0.6375886986524315, "detail": 0.13957424646832894, "poisoning": -1.3167111516177332, "cafe": 0.10656858277455905, "connecting": 0.8609465529587917, "workout": -5.631599505240544, "mini-bar": 0.5342100123689864, "furious.": -2.9531931514875334, "awesome!": -5.7996224204153375, "skipped": -0.9483757567866675, "decorated,": -4.056832237484539, "never,": 2.548662196471584, "muffins": 0.19601588438252715, "total": 0.03717205911073498, "elegantly": -1.187617993620207, "band": -1.1861206952672352, "*it": 0.8289824881192631, "bottles": 2.5696243734131894, "ranks": 4.5473601979037825, "warn": -3.0721958205845974, "ceiling": 0.9782566239177137, "shame": 4.040427055530239, "min.": 4.958075646116789, "enormous": 5.17368660894473, "clubs.": 0.04908534600611936, "minutes": 6.976889525421522, "sushi": -3.6505435844020573, "lake,": 0.0, "traveled": 1.4535512010936786, "inconvenience.": -1.8254670919861988, "away": 3.2698392031768764, "(it": 1.52880671831261, "hop": 4.021222576655165, "solely": -1.09087950003255, "soap,": 0.526463120890567, "hill": 0.08905670203762783, "knowledgeable.": -2.9146539938806066, "bathroom,": -0.035023761473862436, "get-away": -4.077338714927413, "reassured": 1.9963544040101555, "rest": -10.439359416704642, "promises": 5.775535446911008, "initially": -0.8593190547490398, "bed": 10.499772150250635, "loading": -6.667274265998307, "thrilled": -1.6681856649957685, "april": 5.002603997135603, "anywhere.": 0.0, "happily": -4.687585443656012, "concert.": -0.967775535446911, "business,": 0.5800403619556018, "transit": -1.8753987370613892, "beer.": -1.8151162033721764, "won": 0.0, ",": -0.8837315278953193, "diamonds": -1.7988412212746565, "vacation.": -17.051168543714603, "dissatisfied.\n": -0.9500032549964195, "insisting": -0.4111060477833475, "what": -34.573009569689475, "price.\n": -0.9781915239893236, "options,": -5.261376212486166, "call": 38.00279929692077, "leisure": 5.476205976173427, "drop": -0.35844020571577373, "unexpected": -7.021808476010676, "manager": 11.681661350172515, "grabbed": -1.7643382592279149, "back!": -3.852678862053252, "priceline.com": 0.0, "1/3": 1.6343337022329276, "hallway.": -0.13840244775730748, "broke": 2.732439294316776, "national": 0.9192760887963023, "lobby,": -6.264045309550159, "pair": -1.5271141201744678, "floors": 8.893366317297051, "car": 14.304667664865569, "located,": 8.047457847796368, "fee.": -1.4230193346787319, "awaken": 2.7473471779181042, "alright": -4.600416639541696, "sweat": -1.9805351214113665, "ok": 0.36338780027341966, "hallways": 10.378490983659919, "itself.": -0.14315474252978322, "feels": -3.9938806067313326, "complain,": 0.42712063016730684, "wi-fi.": -1.732178894603216, "tough": 3.4563504980144524, "trouble.": -4.898118612069527, "ridiculous.": 3.2612460126293863, "warmer": -3.372371590391251, "rain": 5.211379467482586, "first": -1.890176420805937, "mediocre": -12.035414361044204, "cancellation": 8.623006314693054, "chef": -0.9979168022915175, "expecting.": -1.888418722739405, "immaculate": 0.8594492546058199, "surprise,": -0.8364689798841222, "burned": -3.7411626847210466, "nice.\n": 1.439489616561422, "missing.": 9.8832107284682, "tv": 2.220884057027537, "acknowledge": 2.079552112492676, "mine.": 0.0, "minute": 14.360132803853915, "\"this": 4.99186250895124, "muffin": 1.8160927022980276, "wise": 0.7535967710435518, "west": -2.7151878132934053, "previously": -2.014126684460647, "luxurious,": -2.991146409738949, "likely": -0.7136254150120435, "firm,": -2.037757958466246, "flushing": 4.034242562333182, "inconvenience!": -0.9136774949547556, "once": -0.8380964780938741, "roomy,": 8.433370223292755, "\"i": 9.283119588568452, "overnight": 3.471128181759, "else!\n": -5.990169910813098, "flavor.": -3.353818110800078, "we've": 2.6401275958596444, "line": 9.284096087494305, "dissapointed": -4.017967580235662, "working.": 10.880932230974546, "tucked": 2.838161578022264, "heating": -0.6821170496712454, "chain": 1.3343532322114446, "relax": -8.432068224724953, "problems": 1.7216978061324133, "busy!": 0.9783868237744938, "presidential": -6.524640322895644, "dire": 0.0, "him.": 1.63635180001302, "goldfish": 4.136514549833995, "emailed": 1.3897532712714016, "allowed.": -3.6416899941410064, "marks": -0.9833344183321397, "iron": 0.9821626196211184, "world,": 2.2019399778660245, "mattress": -12.574506868042445, "gross": -1.5568647874487338, "spacious": -0.8371199791680229, "names": -1.9740902285007487, "argue": -0.8326280841091074, "so.": 0.05689733741292884, "longer,": -1.1410715448213007, "midway": 0.759520864527049, "power": 6.233773842848773, "equipped": -8.303756265868108, "sight": -12.556148688236444, "factor": -0.5019204478875072, "slow.": -1.8129028058069137, "stories": 2.3547946097259294, "recommending": -2.5078445413710044, "valet": 14.882689929041078, "2012.": 2.8543063602630037, "treats": 0.7689603541436104, "chestnut": -0.8633552503092247, "surpassed": -0.5293275177397305, "plan": -1.4224334353232213, "considered": -3.954560249983725, "massage": -6.438838617277521, "use": -2.8681075450817004, "found": -5.143610442028514, "be.": 0.026821170496712454, "orginal": 0.0, "point.": -1.649762385261376, "either.": 2.393463967189636, "arm": -6.218084760106764, "space,": 0.9782566239177137, "gouge": 1.9187552893691817, "left": 4.419113338975327, "also.": 1.6626521710826119, "bellman": -0.08912180196601782, "left,": -4.362867000846299, "large.": 1.4295293275177396, "river,": 5.093874096738493, "worth": 1.0519497428552826, "levels": 3.7845843369572294, "intention": -0.9976564025779571, "idea": -3.843629972007031, "clearly": 1.162033721762906, "desks": -5.293144977540525, "uninterested": 2.3547946097259294, "amazing.": -0.3230909445999609, "additional": 18.78504003645596, "3rd": 14.904889004622095, "doors,": -1.6035414361044202, "collection.": -1.6483301868367946, "stay": -4.178829503287546, "myself,": 0.0, "market": 1.9158257925916282, "bars.": -5.073888418722739, "stay!\n": 0.0, "they're": -8.75170887312024, "website.": -7.649892585118156, "ethan": -2.9294967775535445, "decorated.": 0.9427120630167307, "room!": 0.3495215155263329, "sheraton.": -6.183256298418072, "inviting": 4.3013475685176745, "apologies,": -1.9804700214829765, "guests.": -3.588503352646312, "made.": -3.7567866675346657, "naturally": -5.662847470867782, "memorial": 4.651520083327908, "reluctantly": 0.9977215025063473, "money.\n": -1.6035414361044202, "hd": -2.479916672091661, "do": 16.87051624243213, "conditioning.": 1.5569298873771238, "mentioned": 18.526267821105396, "car,": 2.8399843760171866, "service,": 4.671310461558492, "million": -0.979298222771955, "said.": 1.9061259032615063, "built": 1.2665191068289825, "saved": -1.5673458759195364, "department": 0.9983725017902481, "reservations": -4.323611744027081, "pros:": 4.51253173621509, "spray": -1.9451858602955536, "item": 1.4711932816873903, "start,": 4.520018227979949, "picky": -0.8923898183711998, "drake": 0.9923833083783609, "facility": 6.81016860881453, "i'm": -6.914523794023827, "attitude.": 1.8423279734392293, "on-site": -2.5779571642471195, "greatest": 3.3276479395872665, "bacon,": 1.4798515721632706, "burns": 0.9821626196211184, "shape.": 0.6904498405051754, "discount.": 0.2007681791550029, "crazy": -1.3771238851637264, "22nd,": 0.0, "wow!": -8.318989649111387, "hefty": -2.619165418918039, "beneath": 1.4798515721632706, "trays": 3.411496647353688, "temp": 5.460321593646247, "outing": 2.2756330968035936, "overall,": -10.556734587591954, "claimed": 6.141657444176811, "offer": -10.344443721111906, "rich": 0.253694420936137, "(instead": 5.097324392943168, "stoked": 0.0, "mornings": 1.9963544040101555, "park,": -3.087689603541436, "neighborhood,": 0.9378295683874748, "$25": 0.9593776446845909, "filed": 3.4034242562333183, "guarantee": 2.8433695722934704, "keeping": -2.1021417876440336, "january.": 10.739274786797735, "surprising": 1.5327127140160146, "forcing": 3.871818240999935, "nice.": 0.5033526463120891, "extensive": 1.2311698457131697, "world's": -1.286895384415077, "cool,": -2.0498665451468003, "covered": 23.086973504329144, "wakeup": -2.7605624633812904, "prices.\n": -3.763036260660113, "atmosphere.": 0.9255256819217499, "ford": -0.9085346006119394, "then": 41.98704511425037, "requests.": 2.9996094004296596, "long.": 2.255256819217499, "deck": -6.169390013670985, "june.": 4.672677560054684, "3": 34.63856519757828, "dry.": -0.07343271922400885, "6": 2.193672286960484, "generally": 11.820519497428553, "accomodating": 2.601848837966278, "motel.\n": 0.0, "colors": -2.514549833995183, "excellent,": -0.6309485059566434, "chicago:": 0.0, "prices.": -3.318989649111386, "cocktails": 3.4823253694420937, "north,": 0.7254736019790378, "according": -1.8252717922010286, "experience.": -9.005663693769936, "doing": 1.5375301087168802, "ask": -22.080463511490137, "hospital": 0.4615584922856586, "choice.\n": -2.625024412473146, "good,": 4.3300566369377, "mention": -8.518586029555367, "difficult": 4.188985092116399, "explained": 0.6584857756656466, "ordinary": -6.496712453616301, "open,": -0.9638044398151162, "golden": 1.4160536423409935, "package": -9.410585248356227, "ours.": 0.03534926111581277, "avoid": -7.025714471714081, "degree": 0.6632380704381224, "horrible": 7.779441442614413, "housekeeping": 14.672612460126293, "again.": 13.789401731658096, "bottled": 0.5669552763491961, "beauty.": 0.42926892780417947, "broken": 10.912635896100515, "replaced": 1.9357463706789924, "specific": 0.16860881453030402, "delicious.": -4.446455308899161, "send": 2.3119588568452576, "steakhouse": -5.260334613631925, "decision": -5.1717987110214185, "today": 6.9744157281426995, "luxury,": -1.6705292624178114, "series": 2.110669878263134, "came.": -7.826769090554, "mcdonald's.": 1.2003124796562723, "enjoyable.": -4.691165939717466, "groups": -0.7547685697545733, "glass": 4.011783087038604, "building": 0.8907623201614476, "when": 0.11646377188985091, "disappointing": 7.899811210207669, "late": 6.297701972527831, "supper": -1.249593125447562, "any": 1.1414621443916413, "activities,": -2.602369637393399, "secondly,": -0.9180391901568908, "action": -5.334223032354664, "non-smoking.": 0.681075450817004, "regency": -16.299394570665974, "free": 19.767007356291906, "quality": 9.38819087299004, "home!": -2.642340993424907, "as": -17.219191458889398, "problem,": 4.712323416444242, "fees.": -5.088991602109237, "pier.": 10.741292884577827, "tells": 0.9572944469761083, "sets": 1.452053902740707, "(this": 3.4102597487142763, "disliked": 10.740706985222317, "sauna": -7.52125512661936, "connected": 2.6588763752359874, "booked": 43.043682051949745, "portion": 0.42314953453551196, "talbot,": 2.995117505370744, "cheap.": -0.001692598138142048, "move": 2.4195039385456676, "6,": 0.6698782631339105, "hell": 0.9821626196211184, "traveling": -1.5157867326345942, "marketing": -1.0878198033982163, "minus": 0.6632380704381224, "properly.": 1.34704771824751, "emergency": 0.6668185664995767, "player.": -4.687585443656012, "mostly": 1.9197317882950329, "dated,": 3.251155523728924, "spot": 2.300240869735043, "person": 4.521906125903262, "felt.": 0.0, "adults": 0.0, "traffic.": -2.7605624633812904, "on-site.": 0.0, "high-quality": -7.84291387279474, "hospitality": 1.627302909966799, "learned": -4.1417225441052015, "met.": 0.0, "shut": -3.596705943623462, "9am": -0.9808606210533168, "bartender": 2.5162424321333248, "stunning": -2.550484994466506, "standards": 5.73517349130916, "anymore.": -2.534014712583816, "tolietries": 0.0, "17": 0.0, "lovely": 0.9673849358765705, "angry": -2.9531931514875334, "driving": 3.2555172189310593, "station.": 2.6840049475945578, "awful.": -5.41292884577827, "multiple": -1.3870190742790183, "step": -5.1471909380899685, "30th": -1.4794609725929302, "midnight.": -1.7744938480567671, "members": -4.947529457717597, "table.": 3.7444176811405505, "die": -9.584336957229347, "stand": 1.2184102597487143, "missing": -1.2426274331098237, "dinner": -2.0845648069787126, "bookit": 3.548727296399974, "example": 0.0, "recommendations": -2.569233773842849, "\"night": 9.402057157737126, "lead": -1.6217694160536422, "haven't": 0.1208254670919862, "least,": -0.1292884577826965, "jogging": -1.6491113859774755, "bar.": -1.0239567736475488, "cramped": 2.4254931319575546, "prepare": -4.417290540980405, "second": 22.21352776511946, "arrived.": 4.524249723325305, "inn!": -0.2437341318924549, "all": -24.286830284486687, "sync": 0.97519692728338, "original": 6.969468133585053, "bedroom": 17.12251806523013, "fyi": 0.0, "sheraton": -1.75203437276219, "condition": -2.811600807239112, "$75": 1.948701256428618, "currently": 0.8038539157606928, "including": 0.7084825206692273, "easily": -0.7700019529978517, "personalized": 2.548662196471584, "visits": -5.334548531996615, "unwind": -0.9645205390274071, "sophistication": -0.9937504068745524, "daughter's": 4.5018553479591175, "followed": -2.2417160341123625, "guestroom": 4.196862183451598, "issue,": 0.0, "quoted": 5.605429334027733, "aria": 2.6812707506021742, "november": 0.9770848252066923, "finish": 2.643577892064319, "requested.": -1.5194323286244384, "buy": 4.391250569624374, "tight": 0.8376407785951435, "cleanliness.": -0.9891283119588569, "no": -3.366187097194193, "goodness": 0.706594622745915, "advised": -0.9984376017186382, "dark": 2.118221469956383, "lite": -0.9347698717531411, "ta": 4.953583751057874, "thirty": -3.6879109432979624, "policy,": 5.23169064514029, "advertises": -2.741943883861728, "peninsula": 0.0, "membership": 2.0544235401341058, "level,": -2.5584271857300958, "filling": 1.8608163531020117, "convenient.": 1.019790378230584, "was.\n": 0.9257209817069201, "occupied.": 1.3823318794349326, "bad,": 5.840700475229477, "excellent": -5.645270490202461, "opened": -2.8765705357724105, "public": 5.136840049475945, "in.": -19.527504719744808, "willing": -2.142178243603932, "one.": 6.566759976564025, "course,": -1.026625870711542, "painted": -2.6709198619881516, "reservation!": -4.739600286439686, "speed": -11.27244320031248, "seconds": 1.402382657379077, "discover": 7.753075971616431, "cold.": -1.5033526463120892, "messed": 3.8940173165809515, "spent": 6.990886010025389, "chair": 11.033721762906062, "occupied": -3.1451077403814858, "laundry": -1.1952346852418463, "alternative": -0.509927739079487, "expenses,": 0.9983725017902481, "bit.": 0.0, "rent": -0.21977735824490596, "what?": -4.412733545993099, "huge,": 0.9997396002864397, "seen.": -9.031443265412408, "hotel!": -9.850986263915111, "problems.": 0.5794544626000913, "days,": -2.7284681986849817, "twelveth": -3.0649046286049084, "clients": 2.8641364494499055, "joke": 2.4142959442744614, "minibar,": 3.6621313716554913, "air": -8.106503482846168, "designated": -0.6243083132608553, "fairmont.": -2.771824750992774, "central": -1.9559924484083067, "those": 0.3215936462469893, "(at": -7.437406418852939, "them!": -6.141982943818762, "snacks": 0.8611418527439619, "monaco.\n": 8.852874161838422, "family.": 0.3808996810103509, "thus": -1.7468914784193736, "room).": 4.246468328884838, "horrible.": 2.8893952216652563, "parking,": 5.823839593776446, "experiences": 5.699759130264956, "illinois.": 2.483366968296335, "own.": -0.9087299003971095, "magnificient": 2.8995508104941083, "toliet": 1.6659071675021158, "allergies": -2.5112948375756785, "partial": 2.1622941214764664, "good": 7.0015623982813615, "promise": 2.40492155458629, "flowers": 7.418462339691427, "strewn": 0.4913742594883146, "year": 8.9586615454723, "perfect,": -2.4340863225050455, "bill": 3.169390013670985, "sparkling": -1.1971876830935486, "town,": 2.8397890762320164, "has": 11.543584402057158, "beautifully.": 0.0, "him,": -3.64468459084695, "products": 4.646181889199922, "curtain": -0.9334678731853395, "flushing.": -1.8842523273224399, "appearance": 0.795846624568713, "sleep,": 0.6670789662131371, "life": -4.174142308443461, "stay.\n": -10.01653538181108, "disappointing.": 3.1213462665191067, "thought": 13.444762710761019, "bought": -0.1070242822732895, "barely": -6.773647548987697, "fight": -0.054553739990885974, "explore": -3.7045765249658222, "drinks": -6.444241911333897, "breathtaking.": -1.263589610051429, "getaway.": 0.28559338584727556, "everyone": -15.882169129613956, "stories,": -4.299329470737582, "cups": 2.4647483887767723, "swissotel": 5.347894017316581, "definately": 2.7664865568647876, "everything.": 2.345355120109368, "encounter": 2.2334483432068226, "reasonable,": -1.2650869084044007, "wasn't.": 2.7526202721177007, "(although": 1.6778855543258901, "$2": 2.548662196471584, "else.\n": 2.3348089317101755, "room?": -0.13098105592083847, "register": 0.0, "amalfi.": 1.6362216001562397, "knows": -5.704055725538701, "1.": 0.9906256103118286, "assumed": -2.2975717726710503, "effective": -4.073302519367228, "instead.": 0.0, "kids": -10.229412147646638, "figured": -6.709198619881518, "christmas": 5.230193346787319, "towels": -26.56343988021613, "mold,": -0.988412212746566, "stop.": -0.9664735368791094, "families": 4.290540980404922, "whatever": -0.4228891348219517, "rest.": 3.1434151422433434, "get.": 1.8447366707896622, "hall": -3.2934053772540848, "much.": 4.504915044593451, "music": 0.7873836338780027, "prompt,": -2.7816548401796757, "pillows,": 7.022719875008137, "care": -4.4821300696569235, "all!": 2.4328494238656337, "intercontinental": -9.807369311893757, "guess": -7.667599765640258, "plus": 3.3243929431677626, "food!": 0.0629516307532062, "grand": -4.218475359677105, "reviews": 13.07506021743376, "for.": -2.970184232797344, "by": 9.742334483432069, "but...": 0.6945511359937504, "newer": 1.063732829893887, "restaurants.": 3.994466506086843, "trouble,": -6.027732569494174, "yearly": 0.0, "ordering": 0.8733806392812968, "texting": -3.6630427706529525, "waiters": 3.871818240999935, "*the": 2.072456220298158, "dollar": 4.182540199205781, "button": 3.6021092376798385, "\"luxury": -2.751188073693119, "forth": 1.6263264110409479, "massages,": -0.9376993685306946, "sheraton!": 6.400234359742204, "312": 0.0, "accounting": 0.19601588438252715, "exception": 2.568322374845388, "cooled": -2.5584271857300958, "falls": -0.09296269774103248, "personally,": 3.6848512466636287, "paper.": 1.7456545797799623, "24th": 2.7097194193086387, "woken": 0.0, "visitors": 3.6006119393268667, "jacuzzi.": -0.23501074148818435, "enjoyed": -29.972332530434215, "construction.": 3.0953713950914654, "paying": -3.8229932947073757, "midnight": 0.013410585248356144, "beautiful.": 7.564481479070373, "internet": -4.853655360979102, "fountain.": 0.8964911138597748, "run": -0.3451598203241977, "calling": 9.514940433565524, "add": -6.155719028709068, "few": 12.197578282663889, "man": -0.8833409283249789, "coffee": 23.60276023696374, "may,": 3.556929887377124, "little": 6.224464553088992, "apology.": 0.5423475034177463, "reeked": -4.995182605299134, "superbly": 0.20910096998893302, "beds,": 7.121281166590717, "responsive": -4.332009634789402, "fine.": 0.2943818761799362, "away.\n": -0.9921880085931906, "pm.": -0.39274786797734523, "charm.": -2.635440401015559, "this,": -2.1401601458238395, "furniture": 13.044267951305255, "lacking.": 2.0258446715708613, "generous,": 2.548662196471584, "ground": -2.04127335459931, "trip,": -0.13501725148102336, "furniture,": 5.959572944469761, "year,": 2.7646637588698653, "district.": -3.1865112948375756, "42": -2.639671896360914, "goodies": 0.43577892064318724, "3.": -1.8367944795260724, "feet": 0.9044984050517544, "stars": -0.12310396458563895, "york": -4.687585443656012, "nicer.": 0.44762710761018165, "friends,": 0.9044984050517544, "opposite": -4.738949287155784, "pretended": -1.6745654579779963, "shabby": 8.097649892585117, "average": 1.5722283705487925, "option!": 0.9557971486231365, "all,": -10.613697024933273, "accomodating.": 3.33038213657965, "required": 6.152398932361175, "weeks.": 4.795781524640323, "she's": 2.6847210468068488, "us": -3.880671831260986, "enough,": -11.741813684004947, "refreshing": -0.9347698717531411, "awesome": 2.6060803333116334, "before,": -4.055660438773518, "milk,": 1.4798515721632706, "happen": 4.947008658290476, "between": 8.101360588503352, "tvs": -1.563635180001302, "until": 2.9178438903717208, "condo": 3.481804570014973, "dusty": 1.8894603215936463, "advise": 5.510188138793048, "quikbook": 0.0, "for?\n": 0.0, "(in": 0.044528351018813916, "age": 3.861076752815572, "problems:": 0.0, "friends": 18.335915630492806, "last": 10.758674565457978, "want.": -2.682442549313196, "third": 3.4517935030271465, "pleased!": 0.9783868237744938, "equipped.": -3.3792070828722087, "10:00": -1.9336631729705098, "for": 10.104224985352516, "luxury.": -5.14907883601328, "opened.": 0.0, "bartenders": 0.08749430375626586, "settled": -7.085866805546514, "guest.": -2.169390013670985, "mag": -1.9838552177592605, "men": 1.0040361955601849, "(if": 0.8609465529587917, "attracted": -1.7643382592279149, "rates!!\n": 1.8608163531020117, "wake": -1.7499511750537073, "earlier": -5.30583946357659, "two.": 1.6659071675021158, "empty": -2.4096738493587657, "drain": 0.895058915435193, "star": 14.632901503808345, "sexy": -0.32719224008853587, "incredibly": -6.356747607577631, "lucky": -1.197382982878719, "child": 5.80190091790899, "paint": 0.06457912896295814, "sealed": 3.4587591953648853, "chance": -7.263068810624309, "shoes": 6.190677690254541, "response.": -0.5133780352841613, "airline": 4.319315148753336, "received.": 0.0, "area.": -10.009764989258512, "seven": 10.739274786797735, "lasted": 2.465073888418723, "better!": 0.0, "helpful.": 21.359481804570017, "people,": 2.791029229867847, "from": 14.35472950979754, "room\"": -2.6763882559729186, "$3": 0.0, "overall": -9.336306230063148, "joe's": 3.4482781068940827, "options.": -0.48883536228110147, "secure": 4.00794219126359, "worn": 2.5144196341384024, "miracle": 0.08658290475880477, "massages": -1.3333767332855935, "lift": -3.6203372176290607, "floors.": 1.0577436364819999, "delicious": -2.347633617603021, "perfectly": -6.083132608554131, "went": -13.577892064318728, "thing": -4.266909706399323, "work.": 9.499837250179025, "pictured": -1.5455373999088602, "manage": -1.8044398151162033, "point:": 1.9481153570731071, "pantry": 0.0, "inform": -1.7725408502050648, "these,": -5.19796888223423, "night.": 13.50426404530955, "television.": -1.213983464618189, "eno": 1.2518716229412148, "swept": -0.8776121346266519, "popular": 3.929952477052275, "warmth": -3.179350302714667, "check-in.": -3.38011848186967, "dried": 2.3158648525486623, "mean": -2.2236182540199207, "addition,": -0.8645921489486361, "renovated": 9.538181108000781, "heard": 10.505045244450232, "your": -15.57092637198099, "ready,": -3.641820193997787, "nor": 12.766030857366058, "twice.": -1.4613631925004882, "wanting": 3.701842327973439, "gift\".": 0.0, "stuffy": -4.490462860490854, "things,": -1.289889981121021, "exhibit": 4.716620011717987, "wait.": 1.8682377449384806, "fact,": -10.414230844346072, "carpet": 4.937829568387475, "closets.": 0.0, "bugs": 2.757958466245687, "sessions": 0.6399322960744744, "exceptional": 2.6794479526072523, "customary": 5.097324392943168, "seems": -12.931579975262027, "unacceptable": 4.356487207864071, "pleasant.": -13.01614478224074, "hotels": -5.304537465008789, "front": -1.2634594101946488, "degrees.": 0.0, "mediocre,": 0.3199661480372372, "small": 42.58681075450817, "expect": -25.399778660243474, "wrong.": -2.208580170561812, "blues": 0.0, "recently.": 4.52060412733546, "care.": -2.5441703014126684, "half": -2.6954625349912114, "comfortably": 0.5212551266193608, "ends": -0.5646767788555432, "advertised": -0.5060217433760821, "phone,": 4.799231820844997, "threw": -3.4778985743115682, "couch,": 1.9162814920903588, "decide": -7.595924744482781, "inept": -0.9051494043356553, "night).": 0.4913742594883146, "p.m.": -0.7687650543584402, "mixed": 2.146474838877677, "inflated": -1.7737126489160862, "comfort.": -6.033461363192501, "asthmatic": -0.3929431677625155, "loop.": 0.513312935355771, "champagne.": 2.823123494564156, "complained": -1.7709784519237028, "michigan,": -7.276674695657835, "bag": 8.161903521906126, "\"upgrade\"": 3.7845843369572294, "free,": -0.45641559794284225, "arranged": -7.119718768309355, "big": -10.835492480958271, "cuisine": -4.959442744612981, "vinegar.": 0.044528351018813916, "makes": -7.309419959638045, "maintain": 3.747672677560055, "city,": -14.737256689017642, "transportation.": 1.667860165353818, "friendly,": -6.742659983074018, "right.": 2.573855868758544, "trucks": -1.7767072456220299, "cardio": -2.1126879760432264, "attention": -14.852939261766812, "handy.": 0.0, "(even": 0.16561421782436037, "kinds": -5.1053967840635375, "coordinate": -2.6161057222837054, "specifics": 0.0, "underneath": -2.9589219451858604, "speak": 3.645595989844411, "someone,": 0.08918690189440792, "television": -6.607772931449776, "la": 0.9519562528481218, "kudos": -5.24028383568778, "art": 0.49098365991797444, "$30": -5.408567150576134, "requests,": 2.8824946292559077, "stuffy.": 0.0, "fairmont": 3.399843760171864, "smell": -19.021092376798386, "luxuries": -0.9087299003971095, "everything,": 2.6956578347763815, "concierge,": 4.046090749300176, "perk": 0.09042380053381938, "lack": 15.250504524445024, "bellmen": 4.440856715057613, "pretty,": -3.42959442744613, "aquarium": -5.567606275633097, "club.": 1.0878198033982163, "attractive": 0.9597031443265412, "leave": 11.276414295944274, "choosing": -2.258707115422173, "black": -6.699759130264956, "pricing": -5.084629906907102, "about": 13.253694420936135, "crowd.": -0.12160666623266714, "become": -3.471779181042901, "cool": 3.3079877612134627, "lcd": -3.6942907362801902, "reviewers": 2.6482650869084043, "were,": -9.370548792396328, "pointed": -1.9946618058720136, "130": 3.3276479395872665, "combined": -1.7453290801380117, "suite,": -4.151943232862444, "12": 2.9732439294316775, "lying": -3.692337738428488, "into": -15.981446520408827, "construction": 7.109172579910162, "all.": 2.7005403294056376, "offered.": 3.1738819087299004, "iron,": 1.6932491374259488, "oh": 2.1778530043616953, "(see": 2.6244385131176355, "thin,": 0.9749365275698196, "was,": -6.858017056181238, "century": 5.109823579194063, "trip.": -4.65301738168088, "party,": -3.6812056506737845, "machine.": -4.573855868758544, "clerk": -34.2119653668381, "erin": -1.6100514289434282, "heated": -5.8571056571837765, "(you": 3.0011066987826314, "tvs,": 3.2550615194323287, "dept": 0.19601588438252715, "manager.": 0.3920317687650543, "schrager": 0.0, "skyline": -4.978582123559664, "permitted": 0.00468719484408564, "sadly,": -2.3588308052861144, "dog,": -1.9336631729705098, "we'll": -0.9703144326541241, "unknown-word-id": 7.0, "serviced": 1.9313846754768569, "floor": 45.11177657704577, "times": 6.575613566825076, "hotels'": -3.4778985743115682, "showed": 11.134040752555173, "delightful": 0.0, "modern,": -17.416639541696505, "bed.": 35.1076101816288, "pull": 3.3796627823709393, "pasta": 0.44762710761018165, "l": 4.66128507258642, "250": -1.3383243278432393, "maybe": -7.366903196406485, "upper": 1.213332465334288, "both": 5.992969207733871, "exotic": -5.334223032354664, "rooms": -40.589740251285725, "tried": -10.011197187683093, "typically": 0.31723195104485385, "water": -8.480632771303952, "bldg.": 0.0, "check-out": 9.939977866024346, "apologized,": -4.939001367098497, "housekeeper": 0.0, "option.": -3.197578282663889, "cleaning": -10.811470607382333, "22nd": 2.196731983594818, "internet,": -8.0085280906191, "evident": 